{"learner":{"attributes":{"scikit_learn":"{\"_estimator_type\": \"classifier\"}"},"feature_names":[],"feature_types":[],"gradient_booster":{"model":{"gbtree_model_param":{"num_parallel_tree":"1","num_trees":"300"},"iteration_indptr":[0,3,6,9,12,15,18,21,24,27,30,33,36,39,42,45,48,51,54,57,60,63,66,69,72,75,78,81,84,87,90,93,96,99,102,105,108,111,114,117,120,123,126,129,132,135,138,141,144,147,150,153,156,159,162,165,168,171,174,177,180,183,186,189,192,195,198,201,204,207,210,213,216,219,222,225,228,231,234,237,240,243,246,249,252,255,258,261,264,267,270,273,276,279,282,285,288,291,294,297,300],"tree_info":[0,1,2,0,1,2,0,1,2,0,1,2,0,1,2,0,1,2,0,1,2,0,1,2,0,1,2,0,1,2,0,1,2,0,1,2,0,1,2,0,1,2,0,1,2,0,1,2,0,1,2,0,1,2,0,1,2,0,1,2,0,1,2,0,1,2,0,1,2,0,1,2,0,1,2,0,1,2,0,1,2,0,1,2,0,1,2,0,1,2,0,1,2,0,1,2,0,1,2,0,1,2,0,1,2,0,1,2,0,1,2,0,1,2,0,1,2,0,1,2,0,1,2,0,1,2,0,1,2,0,1,2,0,1,2,0,1,2,0,1,2,0,1,2,0,1,2,0,1,2,0,1,2,0,1,2,0,1,2,0,1,2,0,1,2,0,1,2,0,1,2,0,1,2,0,1,2,0,1,2,0,1,2,0,1,2,0,1,2,0,1,2,0,1,2,0,1,2,0,1,2,0,1,2,0,1,2,0,1,2,0,1,2,0,1,2,0,1,2,0,1,2,0,1,2,0,1,2,0,1,2,0,1,2,0,1,2,0,1,2,0,1,2,0,1,2,0,1,2,0,1,2,0,1,2,0,1,2,0,1,2,0,1,2,0,1,2,0,1,2,0,1,2,0,1,2,0,1,2,0,1,2,0,1,2,0,1,2,0,1,2,0,1,2,0,1,2,0,1,2],"trees":[{"base_weights":[3.6665243E-1,1.20177E0,-2.7252224E-1,3.9852396E-1,1.351787E0,7.38758E-1,-5.415637E-1,-1.839324E-1,1.1776505E0,6.635294E-1,1.4243208E0,-1.7647064E-1,1.042735E0,5.5172414E-1,-5.976025E-1,-4.6666673E-1,3.974026E-1,-1.4400001E-1,1.2702702E0,-5.309735E-1,1.0654205E0,1.4379067E0,-1.6363637E-1,1.2077922E0,-5.397924E-1,1.2732363E0,-2.3076928E-1,-4.40367E-1,1.1925466E0,-6.7002016E-1,1.1090529E-2,-5.888595E-1,2.6756757E-1,1.370607E0,-6.206898E-2,-2.0495051E-1,1.2857142E-1,1.2563177E0,-1.13207586E-1,-6.206898E-2,1.4470034E0,3.8769233E-1,1.2857142E-1,2.5714284E-1,-6.281589E-1,1.3364595E0,-6.1224528E-2,8.5714287E-1,-6.2790704E-1,-2.0412374E-1,2.5714284E-1,1.3448275E0,-3.600001E-2,1.9354835E-1,-6.869447E-1,8.918919E-1,-4.356165E-1,2.5714284E-1,-1.972603E-1,-7.663455E-9,4.2757478E-1,4.0415093E-1,-1.2857145E-1,2.5714284E-1,-1.7560977E-1,-1.2857145E-1,4.361775E-1,-2.1699609E-1,8.181818E-2,4.0986922E-1,-1.2857145E-1,2.5714284E-1,-1.7027028E-1,3.4054056E-1,-7.663455E-9,-7.663455E-9,-2.0769234E-1,4.195489E-1,1.2857142E-1,3.5999998E-1,-1.894737E-1,-2.1018714E-1,7.826086E-2,3.8297874E-1,-8.490568E-2,-1.6434786E-1,3.1034482E-1],"categories":[],"categories_nodes":[],"categories_segments":[],"categories_sizes":[],"default_left":[0,0,0,0,0,0,0,0,0,0,0,0,0,0,0,0,0,0,0,0,0,0,0,0,0,0,0,0,0,0,0,0,0,0,0,0,0,0,0,0,0,0,0,0,0,0,0,0,0,0,0,0,0,0,0,0,0,0,0,0,0,0,0,0,0,0,0,0,0,0,0,0,0,0,0,0,0,0,0,0,0,0,0,0,0,0,0],"id":0,"left_children":[1,3,5,7,9,11,13,15,17,19,21,23,25,27,29,31,-1,-1,33,35,37,39,-1,41,43,45,47,49,51,53,55,57,-1,59,-1,-1,-1,61,63,-1,65,-1,-1,-1,67,69,71,73,75,-1,-1,77,-1,79,81,83,85,-1,-1,-1,-1,-1,-1,-1,-1,-1,-1,-1,-1,-1,-1,-1,-1,-1,-1,-1,-1,-1,-1,-1,-1,-1,-1,-1,-1,-1,-1],"loss_changes":[6.9573193E2,6.754407E1,2.01404E2,4.121052E1,2.2801086E1,4.349179E1,3.6116165E1,2.3034975E1,6.5633354E0,2.3235218E1,1.2276794E1,2.0601627E1,3.4638504E1,1.8962032E1,2.4520905E1,7.995469E0,0E0,0E0,5.767498E0,2.1263723E0,8.167107E0,6.6849365E0,0E0,9.591103E-3,4.502288E0,8.4530945E0,8.651164E0,4.3553534E0,3.7369366E0,7.3968506E0,2.403985E1,4.7233315E0,0E0,2.6046066E0,0E0,0E0,0E0,5.2886887E0,3.1997898E0,0E0,6.1345825E0,0E0,0E0,0E0,2.8358335E0,5.565796E0,3.0182018E0,1.2972972E0,5.7960606E-1,0E0,0E0,1.928978E-1,0E0,9.339219E0,6.505478E0,9.65226E0,7.2567325E0,0E0,0E0,0E0,0E0,0E0,0E0,0E0,0E0,0E0,0E0,0E0,0E0,0E0,0E0,0E0,0E0,0E0,0E0,0E0,0E0,0E0,0E0,0E0,0E0,0E0,0E0,0E0,0E0,0E0,0E0],"parents":[2147483647,0,0,1,1,2,2,3,3,4,4,5,5,6,6,7,7,8,8,9,9,10,10,11,11,12,12,13,13,14,14,15,15,18,18,19,19,20,20,21,21,23,23,24,24,25,25,26,26,27,27,28,28,29,29,30,30,31,31,33,33,37,37,38,38,40,40,44,44,45,45,46,46,47,47,48,48,51,51,53,53,54,54,55,55,56,56],"right_children":[2,4,6,8,10,12,14,16,18,20,22,24,26,28,30,32,-1,-1,34,36,38,40,-1,42,44,46,48,50,52,54,56,58,-1,60,-1,-1,-1,62,64,-1,66,-1,-1,-1,68,70,72,74,76,-1,-1,78,-1,80,82,84,86,-1,-1,-1,-1,-1,-1,-1,-1,-1,-1,-1,-1,-1,-1,-1,-1,-1,-1,-1,-1,-1,-1,-1,-1,-1,-1,-1,-1,-1,-1],"split_conditions":[1.1884922E-1,4.6594873E-1,2.2371548E-1,4.3604797E-1,1.469638E-1,1.4066468E-1,2.4600689E-1,6.464535E-1,4.884651E-3,1.0807015E-1,2.0493145E0,1.6353458E-2,6.504539E-1,5.201953E-1,6.130512E-1,7.6262057E-1,3.974026E-1,-1.4400001E-1,2.6797274E-1,9.418963E-1,2.502212E-1,2.1749054E-1,-1.6363637E-1,2.5667217E-1,2.1587018E-2,3.4038326E-1,2.1759409E-1,3.0404794E-1,5.0997096E-1,1.8075128E-1,8.419323E-1,9.87187E-3,2.6756757E-1,5.8437064E-2,-6.206898E-2,-2.0495051E-1,1.2857142E-1,3.1959927E-1,7.466044E-2,-6.206898E-2,9.987244E-2,3.8769233E-1,1.2857142E-1,2.5714284E-1,1.3327834E-1,6.824194E-1,3.9616454E-1,6.035551E-1,1.2123518E-1,-2.0412374E-1,2.5714284E-1,2.034478E-1,-3.600001E-2,8.231509E-2,7.357602E-1,2.0809107E-1,4.5010242E-1,2.5714284E-1,-1.972603E-1,-7.663455E-9,4.2757478E-1,4.0415093E-1,-1.2857145E-1,2.5714284E-1,-1.7560977E-1,-1.2857145E-1,4.361775E-1,-2.1699609E-1,8.181818E-2,4.0986922E-1,-1.2857145E-1,2.5714284E-1,-1.7027028E-1,3.4054056E-1,-7.663455E-9,-7.663455E-9,-2.0769234E-1,4.195489E-1,1.2857142E-1,3.5999998E-1,-1.894737E-1,-2.1018714E-1,7.826086E-2,3.8297874E-1,-8.490568E-2,-1.6434786E-1,3.1034482E-1],"split_indices":[1019,192,408,103,352,1222,653,237,533,656,170,1302,606,1292,757,456,0,0,941,20,1283,391,0,1,677,1432,1366,352,408,63,885,1202,0,457,0,0,0,877,124,0,432,0,0,0,699,296,3,4,4,0,0,7,0,1207,431,293,18,0,0,0,0,0,0,0,0,0,0,0,0,0,0,0,0,0,0,0,0,0,0,0,0,0,0,0,0,0,0],"split_type":[0,0,0,0,0,0,0,0,0,0,0,0,0,0,0,0,0,0,0,0,0,0,0,0,0,0,0,0,0,0,0,0,0,0,0,0,0,0,0,0,0,0,0,0,0,0,0,0,0,0,0,0,0,0,0,0,0,0,0,0,0,0,0,0,0,0,0,0,0,0,0,0,0,0,0,0,0,0,0,0,0,0,0,0,0,0,0],"sum_hessian":[1.3017777E3,5.6399994E2,7.377777E2,8.933333E1,4.7466663E2,1.5466666E2,5.831111E2,5.1555553E1,3.7777775E1,4.622222E1,4.2844443E2,3.8666664E1,1.1599999E2,2.7999998E1,5.551111E2,4.3999996E1,7.5555553E0,1.7777777E0,3.5999996E1,1.1555555E1,3.4666664E1,4.2577774E2,2.6666665E0,7.5555553E0,3.1111109E1,9.822221E1,1.7777777E1,1.1111111E1,1.6888887E1,4.9599997E2,5.9111107E1,4.0888885E1,3.111111E0,3.3777775E1,2.222222E0,1.0222221E1,1.3333333E0,2.9777777E1,4.8888884E0,2.222222E0,4.2355554E2,6.222222E0,1.3333333E0,1.3333333E0,2.9777777E1,9.377777E1,4.444444E0,4.444444E0,1.3333332E1,9.777777E0,1.3333333E0,1.5111111E1,1.7777777E0,9.333333E0,4.8666663E2,1.9555553E1,3.9555553E1,1.3333333E0,3.9555553E1,1.3333333E0,3.2444443E1,2.8444443E1,1.3333333E0,1.3333333E0,3.5555553E0,1.3333333E0,4.222222E2,2.7111109E1,2.6666665E0,9.244444E1,1.3333333E0,1.3333333E0,3.111111E0,3.111111E0,1.3333333E0,1.3333333E0,1.1999999E1,1.3777777E1,1.3333333E0,3.9999998E0,5.333333E0,4.7999997E2,6.666666E0,1.4666666E1,4.8888884E0,3.7333332E1,2.222222E0],"tree_param":{"num_deleted":"0","num_feature":"1536","num_nodes":"87","size_leaf_vector":"1"}},{"base_weights":[8.571424E-2,-5.204254E-1,5.954809E-1,-2.314373E-2,-6.3835686E-1,-1.455432E-2,8.068878E-1,3.6952996E-1,-5.8741266E-1,-6.692034E-1,3.5036492E-1,6.4243615E-1,-3.0548307E-1,4.2367345E-1,9.3829966E-1,5.0847415E-2,9.7183096E-1,2.5714284E-1,-6.474821E-1,-6.8361723E-1,7.9999995E-1,-4.285715E-1,3.5217392E-1,-1.972603E-1,8.426966E-1,-4.5197174E-1,5.680473E-1,-4.0298513E-1,5.808325E-1,5.9999996E-1,1.0892193E0,4.1263938E-1,-5.882354E-1,1.2941177E0,1.3043475E-1,-2.1974029E-1,2.926829E-1,3.0612242E-1,-6.938727E-1,-7.663455E-9,3.2727274E-1,-1.9384618E-1,1.2857142E-1,9.661017E-1,-1.7560977E-1,3.1034482E-1,-4.9226013E-1,1.076923E0,-4.9180332E-1,2.1724138E-1,-5.63536E-1,-3.7974726E-2,7.565217E-1,7.4604845E-1,-2.727273E-1,1.1418408E0,3.8121542E-1,2.549133E-1,-1.0285716E-1,-2.1063831E-1,1.2857142E-1,-7.663455E-9,4.212766E-1,-1.8E-1,3.2727274E-1,2.8800002E-1,-1.4400001E-1,-1.5517244E-1,3.1034482E-1,-2.1066637E-1,8.780487E-2,3.292683E-1,-3.3962276E-2,-1.5771252E-1,2.8800002E-1,-9.753488E-9,4.0645164E-1,-7.663455E-9,-1.836735E-1,-2.1176474E-1,4.864864E-2,3.512195E-1,-8.341466E-2,2.5506073E-1,-8.630139E-2,2.8556392E-1,7.67918E-2,2.0204082E-1,-1.8720002E-1,3.5106966E-1,-1.475411E-2,-7.128715E-2,3.1348315E-1],"categories":[],"categories_nodes":[],"categories_segments":[],"categories_sizes":[],"default_left":[0,0,0,0,0,0,0,0,0,0,0,0,0,0,0,0,0,0,0,0,0,0,0,0,0,0,0,0,0,0,0,0,0,0,0,0,0,0,0,0,0,0,0,0,0,0,0,0,0,0,0,0,0,0,0,0,0,0,0,0,0,0,0,0,0,0,0,0,0,0,0,0,0,0,0,0,0,0,0,0,0,0,0,0,0,0,0,0,0,0,0,0,0],"id":1,"left_children":[1,3,5,7,9,11,13,15,17,19,21,23,25,27,29,31,33,-1,35,37,39,41,-1,-1,43,45,47,49,51,53,55,57,59,61,63,-1,65,67,69,-1,-1,-1,-1,71,-1,-1,73,75,77,-1,79,81,83,85,87,89,91,-1,-1,-1,-1,-1,-1,-1,-1,-1,-1,-1,-1,-1,-1,-1,-1,-1,-1,-1,-1,-1,-1,-1,-1,-1,-1,-1,-1,-1,-1,-1,-1,-1,-1,-1,-1],"loss_changes":[4.0285486E2,3.4918213E1,9.1333786E1,2.5747263E1,1.4917862E1,3.5216873E1,2.6085632E1,1.310933E1,4.6911907E0,1.0441177E1,1.0268034E1,1.5277363E1,1.6593262E1,1.7917192E1,1.9298035E1,1.0852927E1,6.248909E0,0E0,3.9164352E0,4.9142303E0,1.1636364E0,1.8725275E0,0E0,0E0,9.279125E0,7.0901318E0,1.0657096E1,4.4495296E0,1.2507111E1,1.5852783E1,9.586639E0,1.0160822E1,2.2696233E0,2.423029E0,6.0332017E0,0E0,2.809756E0,3.8001409E0,3.984146E0,0E0,0E0,0E0,0E0,6.635208E0,0E0,0E0,5.734642E0,3.8908176E0,4.014721E-1,0E0,2.191956E0,7.966903E0,8.994099E0,1.0392822E1,6.513751E0,8.507416E0,8.508764E0,0E0,0E0,0E0,0E0,0E0,0E0,0E0,0E0,0E0,0E0,0E0,0E0,0E0,0E0,0E0,0E0,0E0,0E0,0E0,0E0,0E0,0E0,0E0,0E0,0E0,0E0,0E0,0E0,0E0,0E0,0E0,0E0,0E0,0E0,0E0,0E0],"parents":[2147483647,0,0,1,1,2,2,3,3,4,4,5,5,6,6,7,7,8,8,9,9,10,10,11,11,12,12,13,13,14,14,15,15,16,16,18,18,19,19,20,20,21,21,24,24,25,25,26,26,27,27,28,28,29,29,30,30,31,31,32,32,33,33,34,34,36,36,37,37,38,38,43,43,46,46,47,47,48,48,50,50,51,51,52,52,53,53,54,54,55,55,56,56],"right_children":[2,4,6,8,10,12,14,16,18,20,22,24,26,28,30,32,34,-1,36,38,40,42,-1,-1,44,46,48,50,52,54,56,58,60,62,64,-1,66,68,70,-1,-1,-1,-1,72,-1,-1,74,76,78,-1,80,82,84,86,88,90,92,-1,-1,-1,-1,-1,-1,-1,-1,-1,-1,-1,-1,-1,-1,-1,-1,-1,-1,-1,-1,-1,-1,-1,-1,-1,-1,-1,-1,-1,-1,-1,-1,-1,-1,-1,-1],"split_conditions":[1.3243978E-1,2.6920745E-1,2.5950238E-1,1.14435166E-1,6.6106373E-1,1.4066468E-1,9.098339E-2,3.7073666E-1,9.832E-2,6.112636E-1,7.4149996E-1,6.921781E-2,7.4852383E-1,2.782907E-2,2.9201475E-1,7.704775E-2,1.5750955E-1,2.5714284E-1,3.4174266E-1,4.388568E-2,6.6425717E-1,1.888922E-1,3.5217392E-1,-1.972603E-1,8.365451E-2,4.9074015E-1,6.8696775E-2,1.8316777E-1,1.7421968E-2,1.6064365E-1,4.350887E-1,3.1690747E-1,6.105347E-1,6.9027087E-3,1.2662397E-1,-2.1974029E-1,2.0230898E-1,8.346445E-1,2.4259305E0,-7.663455E-9,3.2727274E-1,-1.9384618E-1,1.2857142E-1,4.013698E-1,-1.7560977E-1,3.1034482E-1,6.824194E-1,4.649915E-2,1.5076399E-1,2.1724138E-1,9.737695E-1,6.3739307E-3,7.0932174E-1,1.6196859E-1,1.5891226E-1,1.2497323E0,2.3249185E-2,2.549133E-1,-1.0285716E-1,-2.1063831E-1,1.2857142E-1,-7.663455E-9,4.212766E-1,-1.8E-1,3.2727274E-1,2.8800002E-1,-1.4400001E-1,-1.5517244E-1,3.1034482E-1,-2.1066637E-1,8.780487E-2,3.292683E-1,-3.3962276E-2,-1.5771252E-1,2.8800002E-1,-9.753488E-9,4.0645164E-1,-7.663455E-9,-1.836735E-1,-2.1176474E-1,4.864864E-2,3.512195E-1,-8.341466E-2,2.5506073E-1,-8.630139E-2,2.8556392E-1,7.67918E-2,2.0204082E-1,-1.8720002E-1,3.5106966E-1,-1.475411E-2,-7.128715E-2,3.1348315E-1],"split_indices":[1019,672,408,1498,359,1222,1016,250,880,730,126,1366,606,1207,70,502,347,0,988,352,0,12,0,0,480,1072,1315,149,811,34,1210,237,281,881,367,0,18,53,900,0,0,0,0,1391,0,0,296,1027,1,0,374,437,659,841,245,1413,1100,0,0,0,0,0,0,0,0,0,0,0,0,0,0,0,0,0,0,0,0,0,0,0,0,0,0,0,0,0,0,0,0,0,0,0,0],"split_type":[0,0,0,0,0,0,0,0,0,0,0,0,0,0,0,0,0,0,0,0,0,0,0,0,0,0,0,0,0,0,0,0,0,0,0,0,0,0,0,0,0,0,0,0,0,0,0,0,0,0,0,0,0,0,0,0,0,0,0,0,0,0,0,0,0,0,0,0,0,0,0,0,0,0,0,0,0,0,0,0,0,0,0,0,0,0,0,0,0,0,0,0,0],"sum_hessian":[1.3017777E3,5.946666E2,7.071111E2,1.1422221E2,4.8044443E2,1.8222221E2,5.2488885E2,6.755555E1,4.6666664E1,4.662222E2,1.4222221E1,5.5555553E1,1.2666666E2,1.351111E2,3.8977774E2,4.4888885E1,2.2666666E1,1.3333333E0,4.5333332E1,4.622222E2,3.9999998E0,7.5555553E0,6.666666E0,7.1111107E0,4.8444443E1,1.08888885E2,1.7777777E1,2.1333332E1,1.1377777E2,1.2177777E2,2.6799997E2,2.8888887E1,1.5999999E1,1.5999999E1,6.666666E0,4.1777775E1,3.5555553E0,4.444444E0,4.5777774E2,1.3333333E0,2.6666665E0,6.222222E0,1.3333333E0,4.4888885E1,3.5555553E0,2.222222E0,1.0666666E2,1.1999999E1,5.7777777E0,2.222222E0,1.911111E1,2.5333332E1,8.844444E1,1.04444435E2,1.7333332E1,2.4888887E2,1.911111E1,1.8222221E1,1.0666666E1,1.4666666E1,1.3333333E0,1.3333333E0,1.4666666E1,3.9999998E0,2.6666665E0,1.7777777E0,1.7777777E0,2.222222E0,2.222222E0,4.542222E2,3.5555553E0,3.9999996E1,4.8888884E0,1.04888885E2,1.7777777E0,2.6666665E0,9.333333E0,1.3333333E0,4.444444E0,1.5999999E1,3.111111E0,3.5555553E0,2.1777777E1,8.133333E1,7.1111107E0,7.2888885E1,3.1555553E1,4.444444E0,1.2888888E1,2.431111E2,5.7777777E0,1.0222221E1,8.888888E0],"tree_param":{"num_deleted":"0","num_feature":"1536","num_nodes":"93","size_leaf_vector":"1"}},{"base_weights":[-4.523668E-1,-1.1257482E-3,-5.8451873E-1,4.7800234E-1,-2.209493E-1,-6.949869E-1,-3.9787805E-1,6.6458654E-1,-1.1483258E-1,-2.8588036E-1,7.1900827E-1,-7.0710856E-1,2.222222E-1,-1.2145793E-2,-5.0394595E-1,1.518987E-1,9.443099E-1,5.9999996E-1,-5.639098E-1,3.2830185E-1,-3.952219E-1,1.2222222E0,-2.44898E-1,-4.0871758E-8,-7.194128E-1,-1.8E-1,3E-1,-1.1894278E-1,1.0434783E0,-5.214911E-1,7.317073E-1,4.9681526E-1,-4.7191018E-1,2.0792076E-1,1.1495327E0,-1.6363637E-1,3.3934426E-1,1.2857142E-1,-2.0826449E-1,9.574468E-1,-3.609023E-1,-4.681171E-1,3.191489E-1,3.9130437E-1,1.2857142E-1,-1.7027028E-1,1.2857142E-1,-5.217392E-1,7.9999995E-1,-7.24232E-1,1.7999999E-1,6.6206896E-1,-3.247707E-1,-7.663455E-9,3.7894738E-1,-5.41973E-1,5.660377E-1,-7.663455E-9,3.1034482E-1,-1.7027028E-1,2.3023255E-1,-1.9870132E-1,1.2857142E-1,-1.7560977E-1,1.9565217E-1,-1.2857145E-1,3.669903E-1,-8.181819E-2,3.692308E-1,-2.0571432E-1,1.9459459E-1,-1.5057828E-1,1.7999999E-1,-1.17391326E-1,2.6666668E-1,-1.894737E-1,-7.663455E-9,3.2727274E-1,-7.663455E-9,-2.1871924E-1,1.2413793E-1,3.1376147E-1,-1.2000001E-1,-1.8996543E-1,6.7924405E-3,-1.7151567E-1,1.3533822E-2,-1.4400001E-1,3.4054056E-1],"categories":[],"categories_nodes":[],"categories_segments":[],"categories_sizes":[],"default_left":[0,0,0,0,0,0,0,0,0,0,0,0,0,0,0,0,0,0,0,0,0,0,0,0,0,0,0,0,0,0,0,0,0,0,0,0,0,0,0,0,0,0,0,0,0,0,0,0,0,0,0,0,0,0,0,0,0,0,0,0,0,0,0,0,0,0,0,0,0,0,0,0,0,0,0,0,0,0,0,0,0,0,0,0,0,0,0,0,0],"id":2,"left_children":[1,3,5,7,9,11,13,15,17,19,21,23,25,27,29,31,33,35,37,39,41,43,45,47,49,-1,-1,51,53,55,57,59,61,63,65,-1,-1,-1,-1,67,69,71,73,-1,-1,-1,-1,75,77,79,-1,81,83,-1,-1,85,87,-1,-1,-1,-1,-1,-1,-1,-1,-1,-1,-1,-1,-1,-1,-1,-1,-1,-1,-1,-1,-1,-1,-1,-1,-1,-1,-1,-1,-1,-1,-1,-1],"loss_changes":[7.768707E1,3.1293112E1,2.049939E1,1.0412548E1,1.2635819E1,7.1801147E0,1.5418377E1,1.0070593E1,7.7930274E0,1.2971399E1,6.820561E0,5.426178E0,6.355555E0,9.406165E0,6.7915726E0,5.900385E0,6.6958923E0,6.36304E0,2.208662E0,1.311293E1,8.625921E0,2.760601E-2,1.4263651E0,5.286957E0,4.3323364E0,0E0,0E0,1.237874E1,1.7574368E0,6.8134384E0,1.0092514E0,5.460452E0,1.9795709E0,4.3366966E0,4.6763687E0,0E0,0E0,0E0,0E0,5.6033335E0,5.2906327E0,5.6499786E0,6.6892796E0,0E0,0E0,0E0,0E0,4.393592E-1,1.1636364E0,3.6628113E0,0E0,6.9856377E0,6.5033712E0,0E0,0E0,5.041664E0,4.0505047E0,0E0,0E0,0E0,0E0,0E0,0E0,0E0,0E0,0E0,0E0,0E0,0E0,0E0,0E0,0E0,0E0,0E0,0E0,0E0,0E0,0E0,0E0,0E0,0E0,0E0,0E0,0E0,0E0,0E0,0E0,0E0,0E0],"parents":[2147483647,0,0,1,1,2,2,3,3,4,4,5,5,6,6,7,7,8,8,9,9,10,10,11,11,12,12,13,13,14,14,15,15,16,16,17,17,18,18,19,19,20,20,21,21,22,22,23,23,24,24,27,27,28,28,29,29,30,30,31,31,32,32,33,33,34,34,39,39,40,40,41,41,42,42,47,47,48,48,49,49,51,51,52,52,55,55,56,56],"right_children":[2,4,6,8,10,12,14,16,18,20,22,24,26,28,30,32,34,36,38,40,42,44,46,48,50,-1,-1,52,54,56,58,60,62,64,66,-1,-1,-1,-1,68,70,72,74,-1,-1,-1,-1,76,78,80,-1,82,84,-1,-1,86,88,-1,-1,-1,-1,-1,-1,-1,-1,-1,-1,-1,-1,-1,-1,-1,-1,-1,-1,-1,-1,-1,-1,-1,-1,-1,-1,-1,-1,-1,-1,-1,-1],"split_conditions":[3.875752E-1,3.6963922E-1,1.8385887E-1,5.0876135E-1,3.6804196E-1,2.8532538E-1,8.3086145E-1,4.2489585E-3,1.9938557E-1,3.2968324E-1,3.7403038E-1,9.437604E-2,3.2400075E-1,1.5022787E-1,1.3544007E-1,3.584116E-1,5.489938E-2,4.409936E-2,1.748134E-1,4.7842646E-1,6.400574E-1,8.8784266E-1,5.1274383E-1,1.6401777E-2,1.302077E0,-1.8E-1,3E-1,1.8419744E-1,4.820091E-1,5.269227E-1,7.3502684E-1,2.3402628E-2,1.2699017E-1,2.250274E-2,8.058165E-2,-1.6363637E-1,3.3934426E-1,1.2857142E-1,-2.0826449E-1,2.3762536E-1,1.7475604E-1,7.7472144E-1,1.4282662E-1,3.9130437E-1,1.2857142E-1,-1.7027028E-1,1.2857142E-1,1.8462558E-1,1.1022846E0,1.2349069E0,1.7999999E-1,4.9252668E-1,3.545767E-2,-7.663455E-9,3.7894738E-1,1.8745258E-1,1.6042876E0,-7.663455E-9,3.1034482E-1,-1.7027028E-1,2.3023255E-1,-1.9870132E-1,1.2857142E-1,-1.7560977E-1,1.9565217E-1,-1.2857145E-1,3.669903E-1,-8.181819E-2,3.692308E-1,-2.0571432E-1,1.9459459E-1,-1.5057828E-1,1.7999999E-1,-1.17391326E-1,2.6666668E-1,-1.894737E-1,-7.663455E-9,3.2727274E-1,-7.663455E-9,-2.1871924E-1,1.2413793E-1,3.1376147E-1,-1.2000001E-1,-1.8996543E-1,6.7924405E-3,-1.7151567E-1,1.3533822E-2,-1.4400001E-1,3.4054056E-1],"split_indices":[192,1416,1019,1278,1486,605,1002,62,723,357,757,1505,1329,1196,171,225,677,492,46,1224,297,0,2,1125,1413,0,0,1384,0,1432,3,514,9,1040,747,0,0,0,0,1284,830,419,1393,0,0,0,0,7,0,243,0,404,1065,0,0,1238,170,0,0,0,0,0,0,0,0,0,0,0,0,0,0,0,0,0,0,0,0,0,0,0,0,0,0,0,0,0,0,0,0],"split_type":[0,0,0,0,0,0,0,0,0,0,0,0,0,0,0,0,0,0,0,0,0,0,0,0,0,0,0,0,0,0,0,0,0,0,0,0,0,0,0,0,0,0,0,0,0,0,0,0,0,0,0,0,0,0,0,0,0,0,0,0,0,0,0,0,0,0,0,0,0,0,0,0,0,0,0,0,0,0,0,0,0,0,0,0,0,0,0,0,0],"sum_hessian":[1.3017777E3,2.9511108E2,1.0066666E3,9.244444E1,2.0266666E2,6.306666E2,3.7599997E2,7.022222E1,2.2222221E1,1.9022221E2,1.2444444E1,6.226666E2,7.9999995E0,8.133333E1,2.9466666E2,2.5333332E1,4.4888885E1,8.444444E0,1.3777777E1,2.8444443E1,1.6177777E2,7.9999995E0,4.444444E0,1.0666666E1,6.1199994E2,3.9999998E0,3.9999998E0,7.4666664E1,6.666666E0,2.9111108E2,3.5555553E0,1.6444443E1,8.888888E0,1.0222221E1,3.4666664E1,2.6666665E0,5.7777777E0,1.3333333E0,1.2444444E1,1.4666666E1,1.3777777E1,1.471111E2,1.4666666E1,6.666666E0,1.3333333E0,3.111111E0,1.3333333E0,6.666666E0,3.9999998E0,6.1022217E2,1.7777777E0,1.5111111E1,5.9555553E1,1.3333333E0,5.333333E0,2.862222E2,4.8888884E0,1.3333333E0,2.222222E0,3.111111E0,1.3333332E1,7.5555553E0,1.3333333E0,3.5555553E0,6.666666E0,1.3333333E0,3.3333332E1,2.6666665E0,1.1999999E1,1.0666666E1,3.111111E0,1.431111E2,3.9999998E0,6.666666E0,7.9999995E0,5.333333E0,1.3333333E0,2.6666665E0,1.3333333E0,6.0799994E2,2.222222E0,1.1111111E1,3.9999998E0,3.1111109E1,2.8444443E1,2.7244443E2,1.3777777E1,1.7777777E0,3.111111E0],"tree_param":{"num_deleted":"0","num_feature":"1536","num_nodes":"89","size_leaf_vector":"1"}},{"base_weights":[2.7338377E-1,7.8516215E-1,-2.7691087E-1,1.869901E-1,9.1039395E-1,4.5269763E-1,-5.1574963E-1,-2.3754402E-1,8.157027E-1,5.346161E-1,9.7530806E-1,-2.4118783E-1,6.8712866E-1,2.2042233E-1,-5.676251E-1,-4.7924888E-1,7.74707E-1,1.6988415E-2,9.277499E-1,-4.5032755E-1,7.488446E-1,9.8380196E-1,-2.9792738E-1,8.9848065E-1,-4.5592356E-1,8.264214E-1,-2.138576E-1,8.778007E-1,-4.7295743E-1,3.5272083E-1,-5.9182173E-1,-5.628885E-1,2.0334885E-1,2.96673E-1,-1.4165385E-1,-1.7030856E-1,2.264442E-1,9.868078E-1,-1.4093298E-1,-1.999548E-1,2.0753412E-1,9.003701E-1,5.165589E-2,-1.385995E-1,9.900344E-1,-4.616575E-3,-1.2955673E-1,9.8270364E-2,2.958208E-1,2.3775035E-1,-5.770819E-1,3.395361E-1,9.406884E-1,-1.9050996E-1,2.3591077E-1,1.0830792E0,-1.3527395E-1,2.4048589E-1,-1.9325563E-1,-1.6655332E-1,9.342184E-1,-6.1513186E-1,9.888006E-2,-1.8795641E-1,1.1323501E-1,-1.1782439E-2,3.0688277E-1,-1.6045368E-1,2.8433937E-1,-1.9025193E-1,2.4416976E-1,2.9956266E-1,3.902189E-2,-1.989446E-1,7.980034E-2,1.7759119E-1,-1.984113E-1,2.9052737E-1,-1.3280624E-1,3.4120578E-1,9.711232E-2,9.8061256E-2,3.0477312E-1,9.151371E-2,-1.885418E-1,-1.7791946E-1,1.8692881E-1],"categories":[],"categories_nodes":[],"categories_segments":[],"categories_sizes":[],"default_left":[0,0,0,0,0,0,0,0,0,0,0,0,0,0,0,0,0,0,0,0,0,0,0,0,0,0,0,0,0,0,0,0,0,0,0,0,0,0,0,0,0,0,0,0,0,0,0,0,0,0,0,0,0,0,0,0,0,0,0,0,0,0,0,0,0,0,0,0,0,0,0,0,0,0,0,0,0,0,0,0,0,0,0,0,0,0,0],"id":3,"left_children":[1,3,5,7,9,11,13,15,17,19,21,23,25,27,29,31,33,35,37,39,41,43,45,47,49,51,53,55,57,59,61,63,-1,-1,-1,-1,-1,65,-1,-1,-1,67,69,-1,71,-1,-1,-1,-1,-1,73,75,77,-1,-1,79,-1,-1,-1,-1,81,83,85,-1,-1,-1,-1,-1,-1,-1,-1,-1,-1,-1,-1,-1,-1,-1,-1,-1,-1,-1,-1,-1,-1,-1,-1],"loss_changes":[3.6814014E2,5.055548E1,1.1006104E2,3.1818266E1,1.3130798E1,2.553651E1,1.8276054E1,1.7865084E1,4.2784214E0,1.8199224E1,5.4410706E0,1.0229803E1,1.4840179E1,1.5004622E1,1.010257E1,6.027212E0,4.250024E0,3.4145334E0,3.9351006E0,4.3492904E0,7.3384247E0,4.7203674E0,1.4176565E-1,1.1961937E-2,5.6648645E0,5.321991E0,7.424708E0,5.0653534E0,4.057846E0,6.858102E0,7.036682E0,3.5245075E0,0E0,0E0,0E0,0E0,0E0,1.5484123E0,0E0,0E0,0E0,4.4116364E0,7.5951943E0,0E0,3.3189392E0,0E0,0E0,0E0,0E0,0E0,2.4955559E0,5.65676E0,3.5581741E0,0E0,0E0,2.4298286E-1,0E0,0E0,0E0,0E0,4.959297E-2,5.338608E0,5.812801E0,0E0,0E0,0E0,0E0,0E0,0E0,0E0,0E0,0E0,0E0,0E0,0E0,0E0,0E0,0E0,0E0,0E0,0E0,0E0,0E0,0E0,0E0,0E0,0E0],"parents":[2147483647,0,0,1,1,2,2,3,3,4,4,5,5,6,6,7,7,8,8,9,9,10,10,11,11,12,12,13,13,14,14,15,15,16,16,17,17,18,18,19,19,20,20,21,21,22,22,23,23,24,24,25,25,26,26,27,27,28,28,29,29,30,30,31,31,37,37,41,41,42,42,44,44,50,50,51,51,52,52,55,55,60,60,61,61,62,62],"right_children":[2,4,6,8,10,12,14,16,18,20,22,24,26,28,30,32,34,36,38,40,42,44,46,48,50,52,54,56,58,60,62,64,-1,-1,-1,-1,-1,66,-1,-1,-1,68,70,-1,72,-1,-1,-1,-1,-1,74,76,78,-1,-1,80,-1,-1,-1,-1,82,84,86,-1,-1,-1,-1,-1,-1,-1,-1,-1,-1,-1,-1,-1,-1,-1,-1,-1,-1,-1,-1,-1,-1,-1,-1],"split_conditions":[1.4193214E-1,4.6780154E-1,2.3928694E-1,4.3975255E-1,1.9605193E-1,1.4066468E-1,9.395097E-2,5.301873E-1,3.3526862E-1,3.015197E-1,2.0493145E0,2.7592646E-2,6.7971516E-1,3.227316E-2,9.122597E-3,8.249371E-1,8.6856836E-1,8.7109335E-2,1.4804629E0,1.515215E0,2.3954538E-1,2.1749054E-1,1.0530441E0,4.086094E-4,7.568601E-2,1.8822086E-1,7.0293266E-1,5.354245E-2,2.820018E-1,1.1154668E-1,4.428708E-1,7.180079E-1,2.0334885E-1,2.96673E-1,-1.4165385E-1,-1.7030856E-1,2.264442E-1,1.2304148E-2,-1.4093298E-1,-1.999548E-1,2.0753412E-1,8.170438E-3,7.152984E-1,-1.385995E-1,3.287664E-1,-4.616575E-3,-1.2955673E-1,9.8270364E-2,2.958208E-1,2.3775035E-1,1.3327834E-1,2.3279977E-1,9.9379337E-1,-1.9050996E-1,2.3591077E-1,3.974014E-1,-1.3527395E-1,2.4048589E-1,-1.9325563E-1,-1.6655332E-1,7.8793204E-1,3.751026E-1,3.0987555E-1,-1.8795641E-1,1.1323501E-1,-1.1782439E-2,3.0688277E-1,-1.6045368E-1,2.8433937E-1,-1.9025193E-1,2.4416976E-1,2.9956266E-1,3.902189E-2,-1.989446E-1,7.980034E-2,1.7759119E-1,-1.984113E-1,2.9052737E-1,-1.3280624E-1,3.4120578E-1,9.711232E-2,9.8061256E-2,3.0477312E-1,9.151371E-2,-1.885418E-1,-1.7791946E-1,1.8692881E-1],"split_indices":[1019,192,408,103,352,1222,877,237,583,49,170,677,606,41,605,456,509,19,1287,232,496,391,0,736,496,261,1317,1491,606,204,385,826,0,0,0,0,0,1216,0,0,0,1167,97,0,1449,0,0,0,0,0,699,1283,188,0,0,1313,0,0,0,0,43,1206,1292,0,0,0,0,0,0,0,0,0,0,0,0,0,0,0,0,0,0,0,0,0,0,0,0],"split_type":[0,0,0,0,0,0,0,0,0,0,0,0,0,0,0,0,0,0,0,0,0,0,0,0,0,0,0,0,0,0,0,0,0,0,0,0,0,0,0,0,0,0,0,0,0,0,0,0,0,0,0,0,0,0,0,0,0,0,0,0,0,0,0,0,0,0,0,0,0,0,0,0,0,0,0,0,0,0,0,0,0,0,0,0,0,0,0],"sum_hessian":[1.3054097E3,6.761541E2,6.292555E2,1.17483795E2,5.5867035E2,1.5496635E2,4.7428915E2,7.050077E1,4.698302E1,8.365282E1,4.7501752E2,3.9126923E1,1.1583943E2,3.1007565E1,4.4328162E2,5.7336533E1,1.3164242E1,5.9218063E0,4.1061214E1,1.4747438E1,6.890538E1,4.7209546E2,2.9220786E0,5.698597E0,3.3428326E1,1.0040028E2,1.5439148E1,1.5780469E1,1.5227096E1,1.1007871E1,4.3227374E2,5.3950253E1,3.3862782E0,1.1410864E1,1.7533785E0,3.4324074E0,2.4893987E0,3.967834E1,1.3828744E0,1.2750354E1,1.997085E0,5.6363934E1,1.2541447E1,1.7124505E0,4.70383E2,1.2982205E0,1.6238582E0,1.3884387E0,4.3101583E0,2.4670122E0,3.0961315E1,1.9838968E1,8.056132E1,1.1121301E1,4.317847E0,1.3828857E1,1.951611E0,1.3673447E0,1.3859751E1,4.31542E0,6.6924505E0,4.182673E2,1.4006441E1,5.08434E1,3.1068532E0,1.3468264E0,3.8331512E1,1.4742589E0,5.4889675E1,6.690069E0,5.8513775E0,4.6561542E2,4.767582E0,2.8287037E1,2.6742768E0,1.6169493E1,3.669474E0,7.9271904E1,1.2894158E0,1.2441864E1,1.3869935E0,1.3863971E0,5.306053E0,5.664932E0,4.1260236E2,5.980747E0,8.025694E0],"tree_param":{"num_deleted":"0","num_feature":"1536","num_nodes":"87","size_leaf_vector":"1"}},{"base_weights":[7.0234105E-2,-4.427695E-1,4.3494686E-1,-1.0816165E-2,-5.554742E-1,8.844814E-3,5.8327603E-1,2.9451576E-1,-5.12498E-1,-5.859802E-1,2.8864634E-1,-2.7446085E-1,5.1533103E-1,6.332869E-2,6.410258E-1,-5.4729667E-2,6.083288E-1,2.0553271E-1,-5.727576E-1,-6.0057724E-1,6.350301E-1,-3.6390656E-1,8.6892825E-1,-4.222311E-1,3.7271917E-1,6.560582E-1,-3.4766892E-1,6.077421E-1,-3.7858334E-1,7.5872046E-1,3.9304706E-1,1.9765997E-1,-5.6944174E-1,1.9249587E-1,9.4525033E-1,-1.9752215E-1,2.5268763E-1,-6.1574775E-1,3.4913644E-2,-8.55065E-3,2.6060852E-1,-1.7672886E-1,1.3155739E-1,8.35706E-2,2.8609556E-1,1.5052722E-1,-5.537664E-1,-1.7854592E-1,7.329443E-1,-5.4326765E-2,8.0913883E-1,1.6687216E-1,-2.0625502E-1,8.792121E-1,-2.4628729E-1,5.08931E-1,-5.2960014E-1,7.7820104E-1,-4.3879026E-1,-3.3065844E-1,4.630185E-1,1.3098711E-1,-1.7570369E-1,-1.9489439E-1,1.4924348E-2,1.6472659E-1,-1.7840481E-1,3.1445962E-1,-1.1158366E-1,2.2404821E-1,-1.2526013E-1,-1.8808071E-1,5.5534728E-2,2.8122258E-1,-1.7253873E-1,-1.4469075E-1,2.5584233E-1,-1.8656506E-1,3.2961193E-2,-1.303826E-1,3.3262375E-1,2.0028365E-1,-1.985695E-1,2.6517618E-1,-1.6241042E-1,3.002692E-1,-5.6277186E-2,2.2403903E-1,-1.917401E-1,-1.117388E-1,2.6096117E-1,1.1633509E-1,-1.8776292E-1,2.4124053E-1,-4.202553E-2,-1.6966078E-1,5.695415E-3,-2.084452E-1,1.7603198E-1,1.5731575E-1,-1.4604823E-1],"categories":[],"categories_nodes":[],"categories_segments":[],"categories_sizes":[],"default_left":[0,0,0,0,0,0,0,0,0,0,0,0,0,0,0,0,0,0,0,0,0,0,0,0,0,0,0,0,0,0,0,0,0,0,0,0,0,0,0,0,0,0,0,0,0,0,0,0,0,0,0,0,0,0,0,0,0,0,0,0,0,0,0,0,0,0,0,0,0,0,0,0,0,0,0,0,0,0,0,0,0,0,0,0,0,0,0,0,0,0,0,0,0,0,0,0,0,0,0,0,0],"id":4,"left_children":[1,3,5,7,9,11,13,15,17,19,21,23,25,27,29,31,33,-1,35,37,39,41,43,45,47,49,51,53,55,57,59,61,63,65,67,-1,69,71,73,-1,-1,-1,-1,-1,-1,75,77,-1,79,81,83,-1,-1,85,87,89,91,93,95,97,99,-1,-1,-1,-1,-1,-1,-1,-1,-1,-1,-1,-1,-1,-1,-1,-1,-1,-1,-1,-1,-1,-1,-1,-1,-1,-1,-1,-1,-1,-1,-1,-1,-1,-1,-1,-1,-1,-1,-1,-1],"loss_changes":[2.3803082E2,2.5733093E1,4.698549E1,1.7065586E1,1.0965958E1,2.7834663E1,1.6518814E1,7.6262484E0,3.4337854E0,7.5995636E0,6.107525E0,1.2056127E1,8.678091E0,1.3760272E1,1.418515E1,4.491295E0,4.942134E0,0E0,3.0416489E0,3.8847198E0,8.419149E-1,1.6865007E0,1.540122E-1,7.749794E0,8.684986E0,6.5870686E0,3.5798855E0,6.1473665E0,4.512644E0,8.166962E0,8.346231E0,4.628243E0,5.958762E-1,5.274069E0,3.0949059E0,0E0,1.817337E0,3.62323E0,6.2040105E0,0E0,0E0,0E0,0E0,0E0,0E0,9.207042E0,3.8189583E0,0E0,8.243695E0,5.5318203E0,5.4842033E0,0E0,0E0,2.7359905E0,3.189228E0,1.9507408E0,2.6755018E0,7.982086E0,3.593893E-1,5.368107E0,8.879114E0,0E0,0E0,0E0,0E0,0E0,0E0,0E0,0E0,0E0,0E0,0E0,0E0,0E0,0E0,0E0,0E0,0E0,0E0,0E0,0E0,0E0,0E0,0E0,0E0,0E0,0E0,0E0,0E0,0E0,0E0,0E0,0E0,0E0,0E0,0E0,0E0,0E0,0E0,0E0,0E0],"parents":[2147483647,0,0,1,1,2,2,3,3,4,4,5,5,6,6,7,7,8,8,9,9,10,10,11,11,12,12,13,13,14,14,15,15,16,16,18,18,19,19,20,20,21,21,22,22,23,23,24,24,25,25,26,26,27,27,28,28,29,29,30,30,31,31,32,32,33,33,34,34,36,36,37,37,38,38,45,45,46,46,48,48,49,49,50,50,53,53,54,54,55,55,56,56,57,57,58,58,59,59,60,60],"right_children":[2,4,6,8,10,12,14,16,18,20,22,24,26,28,30,32,34,-1,36,38,40,42,44,46,48,50,52,54,56,58,60,62,64,66,68,-1,70,72,74,-1,-1,-1,-1,-1,-1,76,78,-1,80,82,84,-1,-1,86,88,90,92,94,96,98,100,-1,-1,-1,-1,-1,-1,-1,-1,-1,-1,-1,-1,-1,-1,-1,-1,-1,-1,-1,-1,-1,-1,-1,-1,-1,-1,-1,-1,-1,-1,-1,-1,-1,-1,-1,-1,-1,-1,-1,-1],"split_conditions":[1.3243978E-1,2.6920745E-1,6.837595E-1,1.14435166E-1,6.6106373E-1,5.778488E-1,3.275159E-1,2.3330107E-1,9.832E-2,6.112636E-1,7.4149996E-1,6.64575E-1,6.423211E-1,1.929411E-1,6.785892E-1,1.3194363E-1,4.2966276E-1,2.0553271E-1,3.4174266E-1,1.4120402E0,1.0267278E0,1.20305166E-1,2.2410605E-2,1.11774474E-1,2.1104491E-1,2.4627486E-1,2.4829969E-1,3.6236432E-1,9.820384E-2,8.976467E-1,5.350298E-1,4.563583E-1,5.0395626E-1,1.8931954E-1,3.9144143E-1,-1.9752215E-1,2.0230898E-1,2.3905797E0,9.721125E-1,-8.55065E-3,2.6060852E-1,-1.7672886E-1,1.3155739E-1,8.35706E-2,2.8609556E-1,5.3075224E-1,3.4646297E-1,-1.7854592E-1,2.9145083E-1,1.4266202E-1,1.2216467E0,1.6687216E-1,-2.0625502E-1,2.9333016E-1,1.4484608E-1,6.2086475E-1,1.0189668E-2,1.18523456E-1,6.489297E-2,6.2213683E-1,2.1577992E-1,1.3098711E-1,-1.7570369E-1,-1.9489439E-1,1.4924348E-2,1.6472659E-1,-1.7840481E-1,3.1445962E-1,-1.1158366E-1,2.2404821E-1,-1.2526013E-1,-1.8808071E-1,5.5534728E-2,2.8122258E-1,-1.7253873E-1,-1.4469075E-1,2.5584233E-1,-1.8656506E-1,3.2961193E-2,-1.303826E-1,3.3262375E-1,2.0028365E-1,-1.985695E-1,2.6517618E-1,-1.6241042E-1,3.002692E-1,-5.6277186E-2,2.2403903E-1,-1.917401E-1,-1.117388E-1,2.6096117E-1,1.1633509E-1,-1.8776292E-1,2.4124053E-1,-4.202553E-2,-1.6966078E-1,5.695415E-3,-2.084452E-1,1.7603198E-1,1.5731575E-1,-1.4604823E-1],"split_indices":[1019,672,862,1498,359,606,653,115,880,730,126,82,674,454,939,134,774,0,988,1256,53,316,315,599,876,803,546,189,345,237,776,1184,17,1000,18,0,18,900,952,0,0,0,0,0,0,358,540,0,597,204,1268,0,0,675,321,5,785,171,108,291,589,0,0,0,0,0,0,0,0,0,0,0,0,0,0,0,0,0,0,0,0,0,0,0,0,0,0,0,0,0,0,0,0,0,0,0,0,0,0,0,0],"split_type":[0,0,0,0,0,0,0,0,0,0,0,0,0,0,0,0,0,0,0,0,0,0,0,0,0,0,0,0,0,0,0,0,0,0,0,0,0,0,0,0,0,0,0,0,0,0,0,0,0,0,0,0,0,0,0,0,0,0,0,0,0,0,0,0,0,0,0,0,0,0,0,0,0,0,0,0,0,0,0,0,0,0,0,0,0,0,0,0,0,0,0,0,0,0,0,0,0,0,0,0,0],"sum_hessian":[1.2701897E3,5.277062E2,7.424835E2,1.09423706E2,4.1828247E2,1.9199706E2,5.5048645E2,6.828019E1,4.114352E1,4.039884E2,1.4294051E1,1.23419716E2,6.857735E1,5.5239223E1,4.952472E2,3.2706463E1,3.5573727E1,1.4742762E0,3.9669243E1,3.9971796E2,4.2704654E0,6.9035645E0,7.3904867E0,1.00760666E2,2.2659048E1,5.916866E1,9.408688E0,2.4581184E1,3.0658037E1,3.3445148E2,1.6079572E2,2.2358788E1,1.0347676E1,1.6625568E1,1.8948158E1,3.6123383E1,3.5458598E0,3.9042865E2,9.289295E0,1.3408656E0,2.9295998E0,5.5983396E0,1.3052247E0,1.4656572E0,5.9248295E0,1.8791304E1,8.196937E1,5.969014E0,1.6690035E1,1.0604163E1,4.8564495E1,2.3968735E0,7.0118136E0,1.8629837E1,5.9513474E0,4.113468E0,2.6544569E1,3.294424E2,5.009078E0,1.3847477E1,1.4694824E2,1.7471561E1,4.887226E0,9.117463E0,1.2302134E0,1.1650389E1,4.9751787E0,1.7763994E1,1.1841646E0,1.9752507E0,1.5706091E0,3.8526376E2,5.164876E0,3.530161E0,5.7591343E0,1.0049166E1,8.742137E0,7.439612E1,7.5732512E0,4.0258627E0,1.2664172E1,4.800825E0,5.803338E0,4.634379E1,2.2207077E0,1.6777845E1,1.8519914E0,1.4315399E0,4.5198073E0,1.1858253E0,2.927643E0,2.233592E0,2.4310978E1,3.205148E2,8.927598E0,3.738567E0,1.2705109E0,1.00864725E1,3.761004E0,1.3845116E2,8.49708E0],"tree_param":{"num_deleted":"0","num_feature":"1536","num_nodes":"101","size_leaf_vector":"1"}},{"base_weights":[-3.788098E-1,-5.4722402E-2,-5.3064793E-1,-2.356762E-1,2.9151106E-1,-5.780521E-1,-1.1108786E-1,-4.8342362E-2,-5.1850784E-1,7.142564E-1,-1.5526164E-4,-5.898365E-1,5.1515496E-1,5.1610476E-1,-3.3075562E-1,5.336254E-1,-1.3588548E-1,5.998218E-1,-5.6135446E-1,8.1595445E-1,-1.6174212E-1,6.3319945E-1,-1.774325E-1,-3.6036965E-1,-6.2356174E-1,-1.3977318E-1,2.7322292E-1,1.0099113E0,-1.5338185E-1,-4.1249976E-1,3.227537E-1,8.618111E-1,-3.1666884E-1,-2.6915172E-1,2.958189E-1,-1.3138291E-3,2.6301742E-1,-5.884487E-1,1.5775104E-1,8.926461E-1,-1.4639473E-1,9.271963E-1,-3.535372E-1,6.3625586E-1,-2.940027E-1,3.222313E-1,-3.9746913E-1,-6.278354E-1,1.6180074E-1,-1.15727715E-1,1.1925997E0,-1.8190664E-1,2.916634E-1,-5.3670037E-1,3.3564407E-1,3.2096303E-1,-1.3669439E-1,-1.8053478E-1,1.2894268E-1,1.127639E-1,-1.07717454E-1,2.7400768E-1,2.0011118E-2,-1.8542163E-1,1.4155445E-1,-1.3180813E-1,2.8520903E-1,3.2883108E-1,-1.2131124E-1,2.6063218E-3,-1.4717717E-1,2.9634547E-1,-1.3346268E-1,-1.1593538E-1,1.6102074E-1,-1.3052255E-1,3.0078125E-1,-1.8964618E-1,1.5835008E-1,1.06639855E-1,3.8157156E-1,8.117223E-2,-1.9260816E-1,3.4367216E-1,-1.6611448E-1],"categories":[],"categories_nodes":[],"categories_segments":[],"categories_sizes":[],"default_left":[0,0,0,0,0,0,0,0,0,0,0,0,0,0,0,0,0,0,0,0,0,0,0,0,0,0,0,0,0,0,0,0,0,0,0,0,0,0,0,0,0,0,0,0,0,0,0,0,0,0,0,0,0,0,0,0,0,0,0,0,0,0,0,0,0,0,0,0,0,0,0,0,0,0,0,0,0,0,0,0,0,0,0,0,0],"id":5,"left_children":[1,3,5,7,9,11,13,15,17,19,21,23,25,27,29,31,33,35,37,39,-1,41,43,45,47,-1,-1,49,51,53,-1,55,57,59,61,-1,-1,63,-1,65,-1,67,69,71,73,-1,75,77,-1,-1,79,-1,-1,81,83,-1,-1,-1,-1,-1,-1,-1,-1,-1,-1,-1,-1,-1,-1,-1,-1,-1,-1,-1,-1,-1,-1,-1,-1,-1,-1,-1,-1,-1,-1],"loss_changes":[5.7964172E1,2.3695162E1,1.589476E1,1.3126538E1,1.6015118E1,9.588684E0,1.1563896E1,7.7360363E0,5.0707855E0,7.199232E0,8.854239E0,5.296875E0,3.6144865E0,7.3754134E0,7.5558386E0,5.8181376E0,7.6478605E0,6.946449E-1,3.1275158E0,5.3802185E0,0E0,5.330744E0,6.031131E0,5.418563E0,3.4233856E0,0E0,0E0,3.6985798E0,5.759204E0,5.6791067E0,0E0,4.4913483E0,1.5920696E0,5.9946833E0,4.3968544E0,0E0,0E0,3.2383194E0,0E0,4.0559883E0,0E0,3.493699E0,2.3673469E-1,3.4940822E0,4.398884E0,0E0,5.2885866E0,3.4223785E0,0E0,0E0,3.097477E-1,0E0,0E0,4.5219135E0,7.146702E0,0E0,0E0,0E0,0E0,0E0,0E0,0E0,0E0,0E0,0E0,0E0,0E0,0E0,0E0,0E0,0E0,0E0,0E0,0E0,0E0,0E0,0E0,0E0,0E0,0E0,0E0,0E0,0E0,0E0,0E0],"parents":[2147483647,0,0,1,1,2,2,3,3,4,4,5,5,6,6,7,7,8,8,9,9,10,10,11,11,12,12,13,13,14,14,15,15,16,16,17,17,18,18,19,19,21,21,22,22,23,23,24,24,27,27,28,28,29,29,31,31,32,32,33,33,34,34,37,37,39,39,41,41,42,42,43,43,44,44,46,46,47,47,50,50,53,53,54,54],"right_children":[2,4,6,8,10,12,14,16,18,20,22,24,26,28,30,32,34,36,38,40,-1,42,44,46,48,-1,-1,50,52,54,-1,56,58,60,62,-1,-1,64,-1,66,-1,68,70,72,74,-1,76,78,-1,-1,80,-1,-1,82,84,-1,-1,-1,-1,-1,-1,-1,-1,-1,-1,-1,-1,-1,-1,-1,-1,-1,-1,-1,-1,-1,-1,-1,-1,-1,-1,-1,-1,-1,-1],"split_conditions":[4.4967735E-1,6.3304615E-1,4.685334E-1,1.939703E0,1.1844261E0,5.052366E-1,1.4183152E-1,1.22987956E-1,1.02123745E-1,4.8860082E-1,8.170866E-2,8.605818E-2,1.6287597E-1,2.7237248E-1,4.6924233E-1,4.3783355E-1,7.069191E-1,1.689772E-1,1.1294554E-1,9.22569E-1,-1.6174212E-1,1.3548952E0,1.4966619E-1,7.310255E-2,1.4096737E0,-1.3977318E-1,2.7322292E-1,7.053437E-2,7.357549E-1,1.806554E-1,3.227537E-1,9.482974E-1,1.2668556E0,1.5881881E-2,8.3553773E-1,-1.3138291E-3,2.6301742E-1,6.712311E-1,1.5775104E-1,3.7813812E-2,-1.4639473E-1,3.274735E-1,3.7921488E-1,1.3976467E-1,8.236274E-1,3.222313E-1,6.6998947E-1,2.0236084E-1,1.6180074E-1,-1.15727715E-1,3.5124265E-2,-1.8190664E-1,2.916634E-1,2.783556E-1,3.61085E-1,3.2096303E-1,-1.3669439E-1,-1.8053478E-1,1.2894268E-1,1.127639E-1,-1.07717454E-1,2.7400768E-1,2.0011118E-2,-1.8542163E-1,1.4155445E-1,-1.3180813E-1,2.8520903E-1,3.2883108E-1,-1.2131124E-1,2.6063218E-3,-1.4717717E-1,2.9634547E-1,-1.3346268E-1,-1.1593538E-1,1.6102074E-1,-1.3052255E-1,3.0078125E-1,-1.8964618E-1,1.5835008E-1,1.06639855E-1,3.8157156E-1,8.117223E-2,-1.9260816E-1,3.4367216E-1,-1.6611448E-1],"split_indices":[192,538,1296,808,1418,1432,709,257,943,33,987,1222,144,837,390,149,440,52,788,173,0,1531,1004,854,1288,0,0,212,102,945,0,1119,22,352,1525,0,0,1075,0,1393,0,491,35,713,151,0,394,1032,0,0,318,0,0,55,672,0,0,0,0,0,0,0,0,0,0,0,0,0,0,0,0,0,0,0,0,0,0,0,0,0,0,0,0,0,0],"split_type":[0,0,0,0,0,0,0,0,0,0,0,0,0,0,0,0,0,0,0,0,0,0,0,0,0,0,0,0,0,0,0,0,0,0,0,0,0,0,0,0,0,0,0,0,0,0,0,0,0,0,0,0,0,0,0,0,0,0,0,0,0,0,0,0,0,0,0,0,0,0,0,0,0,0,0,0,0,0,0,0,0,0,0,0,0],"sum_hessian":[1.1775123E3,3.7610468E2,8.0140765E2,2.4721877E2,1.2888591E2,7.197129E2,8.1694786E1,1.4942072E2,9.779805E1,5.202755E1,7.685837E1,7.1249286E2,7.2199936E0,2.084083E1,6.0853954E1,1.8871496E1,1.3054921E2,3.1290176E0,9.466903E1,4.8445766E1,3.5817842E0,1.624574E1,6.0612625E1,9.279566E1,6.196972E2,2.023618E0,5.1963754E0,1.1701463E1,9.139367E0,5.8179607E1,2.674347E0,1.3606347E1,5.2651477E0,1.0004276E2,3.0506456E1,1.2926478E0,1.8363698E0,9.281471E1,1.8543231E0,4.6052586E1,2.393181E0,1.25629635E1,3.6827774E0,7.0366898E0,5.3575935E1,1.634757E0,9.1160904E1,6.178866E2,1.8106438E0,1.2257352E0,1.0475728E1,6.845733E0,2.2936335E0,5.013863E1,8.040977E0,1.1912877E1,1.6934704E0,3.9502177E0,1.31493E0,1.1849322E1,8.8193436E1,7.4472446E0,2.3059212E1,9.06978E1,2.1169078E0,1.6489038E0,4.440368E1,1.1305686E1,1.2572771E0,1.2680358E0,2.4147415E0,5.375119E0,1.6615707E0,4.8692062E1,4.8838735E0,8.9447586E1,1.7133157E0,6.160376E2,1.8490086E0,1.3809481E0,9.09478E0,5.6056175E0,4.4533012E1,4.0576386E0,3.9833376E0],"tree_param":{"num_deleted":"0","num_feature":"1536","num_nodes":"85","size_leaf_vector":"1"}},{"base_weights":[2.1965922E-1,6.265967E-1,-2.4575113E-1,1.4680652E-1,7.2428226E-1,3.642697E-1,-4.6356672E-1,-2.0089944E-1,6.7645264E-1,2.1303527E-1,7.593989E-1,5.477187E-1,-2.1736477E-1,1.6840436E-1,-5.1516455E-1,-4.1760564E-1,6.769625E-1,-1.2520286E-1,7.264278E-1,5.557735E-1,-5.27198E-1,7.7178687E-1,-4.1463083E-1,6.616784E-1,-8.37663E-2,-4.2980734E-1,2.1281315E-1,6.8306595E-1,-4.3472973E-1,-5.350991E-1,5.0028217E-1,-5.9840894E-1,1.7629816E-1,-1.0106292E-1,2.368215E-1,7.668537E-1,-1.1221825E-1,7.554768E-1,-3.3220375E-1,7.916003E-2,-1.9432844E-1,-1.509324E-1,7.808355E-1,9.954363E-3,-1.5872005E-1,7.16254E-1,-4.3912366E-1,-5.314723E-1,6.157777E-1,3.0355182E-1,-6.02324E-1,8.3517915E-1,-1.2714867E-1,1.9696178E-1,-1.787913E-1,-5.5649656E-1,1.2601048E-1,2.6902243E-1,-1.3065515E-1,-1.9037652E-1,1.2055987E-2,2.1483539E-1,-1.3798875E-1,-4.5102943E-2,2.4344124E-1,4.2082597E-2,2.3831332E-1,8.1862874E-2,-1.8040945E-1,1.5392116E-1,-1.5135212E-1,-1.280536E-1,2.3566645E-1,2.2415036E-1,-1.4134121E-1,5.705028E-3,-1.694882E-1,-1.9823839E-1,8.4780715E-2,-9.660727E-3,2.2309022E-1,2.1933712E-1,-1.277962E-1,4.131649E-2,-1.9249254E-1,2.7263618E-1,-1.1496227E-2,1.092275E-1,-1.7139275E-1,-1.1483673E-1,3.2539824E-1],"categories":[],"categories_nodes":[],"categories_segments":[],"categories_sizes":[],"default_left":[0,0,0,0,0,0,0,0,0,0,0,0,0,0,0,0,0,0,0,0,0,0,0,0,0,0,0,0,0,0,0,0,0,0,0,0,0,0,0,0,0,0,0,0,0,0,0,0,0,0,0,0,0,0,0,0,0,0,0,0,0,0,0,0,0,0,0,0,0,0,0,0,0,0,0,0,0,0,0,0,0,0,0,0,0,0,0,0,0,0,0],"id":6,"left_children":[1,3,5,7,9,11,13,15,17,19,21,23,25,27,29,31,33,-1,35,37,39,41,43,45,47,49,-1,51,53,55,57,59,61,-1,-1,63,-1,65,67,-1,-1,69,71,-1,-1,73,75,77,79,81,83,85,-1,-1,-1,87,89,-1,-1,-1,-1,-1,-1,-1,-1,-1,-1,-1,-1,-1,-1,-1,-1,-1,-1,-1,-1,-1,-1,-1,-1,-1,-1,-1,-1,-1,-1,-1,-1,-1,-1],"loss_changes":[2.2856104E2,3.0062866E1,7.5015366E1,2.0419764E1,9.435272E0,1.5993027E1,1.363636E1,1.3078553E1,2.701744E0,9.362397E0,7.589142E0,8.214954E0,7.4689093E0,1.0266936E1,8.049034E0,5.9645624E0,1.8275218E0,0E0,2.1699162E0,4.670269E0,1.2988651E0,4.250244E0,3.1832993E-1,6.0916862E0,6.0339513E0,4.006765E0,0E0,3.3374453E0,3.1009169E0,5.410141E0,3.328148E0,9.9719524E-1,4.968487E0,0E0,0E0,1.8061848E0,0E0,3.8278198E-1,1.0224231E0,0E0,0E0,1.5840346E0,3.1297302E0,0E0,0E0,3.7290573E0,3.083548E-1,1.4129376E0,6.5143466E-1,2.3143406E0,8.100805E-1,1.0581179E0,0E0,0E0,0E0,5.1966705E0,6.5854535E0,0E0,0E0,0E0,0E0,0E0,0E0,0E0,0E0,0E0,0E0,0E0,0E0,0E0,0E0,0E0,0E0,0E0,0E0,0E0,0E0,0E0,0E0,0E0,0E0,0E0,0E0,0E0,0E0,0E0,0E0,0E0,0E0,0E0,0E0],"parents":[2147483647,0,0,1,1,2,2,3,3,4,4,5,5,6,6,7,7,8,8,9,9,10,10,11,11,12,12,13,13,14,14,15,15,16,16,18,18,19,19,20,20,21,21,22,22,23,23,24,24,25,25,27,27,28,28,29,29,30,30,31,31,32,32,35,35,37,37,38,38,41,41,42,42,45,45,46,46,47,47,48,48,49,49,50,50,51,51,55,55,56,56],"right_children":[2,4,6,8,10,12,14,16,18,20,22,24,26,28,30,32,34,-1,36,38,40,42,44,46,48,50,-1,52,54,56,58,60,62,-1,-1,64,-1,66,68,-1,-1,70,72,-1,-1,74,76,78,80,82,84,86,-1,-1,-1,88,90,-1,-1,-1,-1,-1,-1,-1,-1,-1,-1,-1,-1,-1,-1,-1,-1,-1,-1,-1,-1,-1,-1,-1,-1,-1,-1,-1,-1,-1,-1,-1,-1,-1,-1],"split_conditions":[1.4193214E-1,4.6780154E-1,2.3928694E-1,4.5189634E-1,1.7738082E-2,3.5417533E-1,9.729813E-2,3.989801E-1,4.884651E-3,1.2042347E0,2.0493145E0,3.531686E-2,7.562865E-1,3.227316E-2,5.068003E-1,8.6049867E-1,3.198543E-2,-1.2520286E-1,8.950408E-1,2.7438146E-1,7.4981917E-3,1.2936236E-1,6.263591E-1,5.7239735E-1,6.3771254E-1,4.7100323E-1,2.1281315E-1,5.354245E-2,3.7501962E-3,1.7157081E0,3.3839667E-1,3.9035496E-1,2.8684518E-1,-1.0106292E-1,2.368215E-1,5.8437064E-2,-1.1221825E-1,1.1826745E-2,7.5318225E-2,7.916003E-2,-1.9432844E-1,3.7638894E-1,1.3298026E-1,9.954363E-3,-1.5872005E-1,6.824194E-1,1.8773952E-2,3.3486465E-1,3.7936872E-1,5.87221E-1,1.1323378E-4,3.653949E-1,-1.2714867E-1,1.9696178E-1,-1.787913E-1,3.0224489E-2,2.0992622E-1,2.6902243E-1,-1.3065515E-1,-1.9037652E-1,1.2055987E-2,2.1483539E-1,-1.3798875E-1,-4.5102943E-2,2.4344124E-1,4.2082597E-2,2.3831332E-1,8.1862874E-2,-1.8040945E-1,1.5392116E-1,-1.5135212E-1,-1.280536E-1,2.3566645E-1,2.2415036E-1,-1.4134121E-1,5.705028E-3,-1.694882E-1,-1.9823839E-1,8.4780715E-2,-9.660727E-3,2.2309022E-1,2.1933712E-1,-1.277962E-1,4.131649E-2,-1.9249254E-1,2.7263618E-1,-1.1496227E-2,1.092275E-1,-1.7139275E-1,-1.1483673E-1,3.2539824E-1],"split_indices":[1019,192,408,103,16,224,877,352,533,1457,170,121,823,41,18,48,267,0,1044,6,811,672,0,730,1179,653,0,1491,652,1002,215,184,297,0,0,457,0,657,79,0,0,56,1224,0,0,296,160,342,89,76,121,59,0,0,0,169,98,0,0,0,0,0,0,0,0,0,0,0,0,0,0,0,0,0,0,0,0,0,0,0,0,0,0,0,0,0,0,0,0,0,0],"split_type":[0,0,0,0,0,0,0,0,0,0,0,0,0,0,0,0,0,0,0,0,0,0,0,0,0,0,0,0,0,0,0,0,0,0,0,0,0,0,0,0,0,0,0,0,0,0,0,0,0,0,0,0,0,0,0,0,0,0,0,0,0,0,0,0,0,0,0,0,0,0,0,0,0,0,0,0,0,0,0,0,0,0,0,0,0,0,0,0,0,0,0],"sum_hessian":[1.2049956E3,6.4269806E2,5.6229755E2,1.09141945E2,5.3355615E2,1.4777162E2,4.1452594E2,6.626228E1,4.2879658E1,3.4747616E1,4.988085E2,1.1238379E2,3.5387825E1,3.1118776E1,3.8340717E2,5.3563953E1,1.2698334E1,1.5523648E0,4.1327293E1,2.3921038E1,1.0826579E1,4.9393924E2,4.869256E0,9.516264E1,1.7221148E1,2.9224693E1,6.163133E0,1.671939E1,1.43993845E1,3.7648926E2,6.917928E0,4.1057236E1,1.2506718E1,1.0684702E0,1.1629864E1,4.0155376E1,1.1719177E0,1.965084E1,4.270196E0,1.2746277E0,9.551951E0,4.644507E0,4.8929474E2,1.1355715E0,3.7336845E0,9.100036E1,4.1622877E0,1.0647218E1,6.573929E0,5.420955E0,2.3803738E1,1.4915174E1,1.8042176E0,1.4582531E0,1.2941132E1,3.6483908E2,1.1650168E1,4.8885784E0,2.02935E0,3.8861805E1,2.1954284E0,6.6982455E0,5.8084726E0,1.7528214E0,3.8402554E1,1.4426061E0,1.8208235E1,1.310457E0,2.9597387E0,1.4570721E0,3.1874347E0,1.5564361E0,4.877383E2,8.905261E1,1.9477423E0,1.0798192E0,3.0824685E0,9.350158E0,1.2970604E0,1.2066627E0,5.367266E0,3.4164522E0,2.0045033E0,1.0746014E0,2.2729136E1,1.3718726E1,1.1964476E0,5.4040074E0,3.5943506E2,8.003202E0,3.6469657E0],"tree_param":{"num_deleted":"0","num_feature":"1536","num_nodes":"91","size_leaf_vector":"1"}},{"base_weights":[5.885661E-2,-4.4072688E-1,3.0680227E-1,-3.964303E-2,-5.3162247E-1,3.8042533E-1,-2.712162E-1,3.1479633E-1,-3.2854334E-1,3.1372535E-1,-5.4859626E-1,4.2439193E-1,-3.6636508E-1,-5.0889874E-1,2.9825923E-1,-2.4346821E-1,5.503945E-1,-4.3116778E-1,1.9788751E-1,2.5409746E-1,-1.3356422E-1,-5.69823E-1,3.4028233E-3,-6.6016994E-2,4.7357827E-1,3.1701908E-1,-5.8326006E-1,-5.664471E-1,3.40791E-1,-5.679056E-1,5.722787E-1,2.0194735E-1,-1.8110734E-1,7.6105297E-1,-1.0462144E-1,-5.6373686E-1,1.1832E-1,-5.779766E-1,1.9923294E-1,-4.5884573E-1,8.384699E-1,6.601077E-1,-2.845859E-1,5.4778916E-1,1.8732107E-1,-1.5420519E-1,2.1516941E-1,9.393238E-2,-6.342812E-1,-6.128386E-1,1.385208E-1,-2.9468825E-2,1.8701385E-1,-2.0506305E-1,3.5776692E-3,7.5826335E-1,-1.6286415E-1,2.570914E-1,-1.0856726E-1,1.7538059E-1,-1.5296853E-1,3.07793E-2,-1.8432829E-1,1.9916192E-1,-1.4920114E-1,-1.7529716E-1,1.4194714E-1,4.0208403E-2,-1.6759029E-1,-1.7506002E-2,3.6963785E-1,-1.1419243E-1,2.3995446E-1,-1.3019297E-1,1.4360002E-1,9.081525E-2,1.8470311E-1,-4.1584823E-2,1.1288661E-1,-1.986912E-1,8.394324E-3,-1.9191436E-1,5.2836705E-2,-1.3357612E-1,1.787129E-1,2.6084644E-1,-1.2890509E-1],"categories":[],"categories_nodes":[],"categories_segments":[],"categories_sizes":[],"default_left":[0,0,0,0,0,0,0,0,0,0,0,0,0,0,0,0,0,0,0,0,0,0,0,0,0,0,0,0,0,0,0,0,0,0,0,0,0,0,0,0,0,0,0,0,0,0,0,0,0,0,0,0,0,0,0,0,0,0,0,0,0,0,0,0,0,0,0,0,0,0,0,0,0,0,0,0,0,0,0,0,0,0,0,0,0,0,0],"id":7,"left_children":[1,3,5,7,9,11,13,15,17,19,21,23,25,27,29,31,33,35,-1,-1,-1,37,39,41,43,45,47,49,51,53,55,-1,-1,57,59,61,63,65,-1,67,69,71,73,75,77,-1,-1,-1,79,81,83,-1,-1,-1,-1,85,-1,-1,-1,-1,-1,-1,-1,-1,-1,-1,-1,-1,-1,-1,-1,-1,-1,-1,-1,-1,-1,-1,-1,-1,-1,-1,-1,-1,-1,-1,-1],"loss_changes":[1.467613E2,1.4307617E1,3.379355E1,7.649649E0,4.76857E0,2.3226234E1,1.233755E1,4.5538783E0,4.4514313E0,3.186501E0,3.6857529E0,1.604905E1,6.0552E0,3.31703E0,6.7668247E0,3.9282756E0,3.3827357E0,2.8223982E0,0E0,0E0,0E0,3.4298935E0,5.2624288E0,9.933874E0,1.2720734E1,3.757569E0,1.5895996E0,2.0540543E0,6.4146173E-1,4.7916102E-1,4.7912326E0,0E0,0E0,2.2741117E0,2.1707938E0,1.0983124E0,3.077388E0,2.286728E0,0E0,5.943221E-1,1.7863069E0,2.4145665E0,5.6693516E0,7.780365E0,7.799952E0,0E0,0E0,0E0,5.5872536E-1,1.3144608E0,1.4751456E0,0E0,0E0,0E0,0E0,2.8200054E0,0E0,0E0,0E0,0E0,0E0,0E0,0E0,0E0,0E0,0E0,0E0,0E0,0E0,0E0,0E0,0E0,0E0,0E0,0E0,0E0,0E0,0E0,0E0,0E0,0E0,0E0,0E0,0E0,0E0,0E0,0E0],"parents":[2147483647,0,0,1,1,2,2,3,3,4,4,5,5,6,6,7,7,8,8,9,9,10,10,11,11,12,12,13,13,14,14,15,15,16,16,17,17,21,21,22,22,23,23,24,24,25,25,26,26,27,27,28,28,29,29,30,30,33,33,34,34,35,35,36,36,37,37,39,39,40,40,41,41,42,42,43,43,44,44,48,48,49,49,50,50,55,55],"right_children":[2,4,6,8,10,12,14,16,18,20,22,24,26,28,30,32,34,36,-1,-1,-1,38,40,42,44,46,48,50,52,54,56,-1,-1,58,60,62,64,66,-1,68,70,72,74,76,78,-1,-1,-1,80,82,84,-1,-1,-1,-1,86,-1,-1,-1,-1,-1,-1,-1,-1,-1,-1,-1,-1,-1,-1,-1,-1,-1,-1,-1,-1,-1,-1,-1,-1,-1,-1,-1,-1,-1,-1,-1],"split_conditions":[1.0696991E-1,2.6246643E-1,3.614679E-1,5.0175804E-1,5.543444E-2,4.108767E-1,1.2231679E0,3.3589953E-1,8.7005705E-1,8.173172E-1,1.4322405E0,9.395097E-2,3.4526664E-1,1.2813417E0,3.2666036E-1,2.0353688E-2,6.910432E-1,2.0240144E-1,1.9788751E-1,2.5409746E-1,-1.3356422E-1,3.8304657E-1,1.649831E-1,1.1146576E0,8.93328E-2,6.9257337E-1,5.763856E-3,4.5612347E-1,2.413675E-1,3.5663506E-1,9.725985E-1,2.0194735E-1,-1.8110734E-1,1.2685354E0,6.9318247E-1,5.1314867E-1,1.19372904E-1,5.5596346E-1,1.9923294E-1,5.298356E-1,1.750911E-1,7.54681E-2,8.3196974E-1,2.8032866E-1,5.736784E-2,-1.5420519E-1,2.1516941E-1,9.393238E-2,2.583155E-1,5.632949E-1,2.7966267E-1,-2.9468825E-2,1.8701385E-1,-2.0506305E-1,3.5776692E-3,1.24751605E-1,-1.6286415E-1,2.570914E-1,-1.0856726E-1,1.7538059E-1,-1.5296853E-1,3.07793E-2,-1.8432829E-1,1.9916192E-1,-1.4920114E-1,-1.7529716E-1,1.4194714E-1,4.0208403E-2,-1.6759029E-1,-1.7506002E-2,3.6963785E-1,-1.1419243E-1,2.3995446E-1,-1.3019297E-1,1.4360002E-1,9.081525E-2,1.8470311E-1,-4.1584823E-2,1.1288661E-1,-1.986912E-1,8.394324E-3,-1.9191436E-1,5.2836705E-2,-1.3357612E-1,1.787129E-1,2.6084644E-1,-1.2890509E-1],"split_indices":[1019,672,352,49,1222,1313,53,429,379,346,606,877,927,357,635,580,544,1449,0,0,0,1449,613,1038,286,327,954,443,6,99,135,0,0,1397,74,1076,668,390,0,64,540,1273,1434,837,360,0,0,0,737,1154,17,0,0,0,0,504,0,0,0,0,0,0,0,0,0,0,0,0,0,0,0,0,0,0,0,0,0,0,0,0,0,0,0,0,0,0,0],"split_type":[0,0,0,0,0,0,0,0,0,0,0,0,0,0,0,0,0,0,0,0,0,0,0,0,0,0,0,0,0,0,0,0,0,0,0,0,0,0,0,0,0,0,0,0,0,0,0,0,0,0,0,0,0,0,0,0,0,0,0,0,0,0,0,0,0,0,0,0,0,0,0,0,0,0,0,0,0,0,0,0,0,0,0,0,0,0,0],"sum_hessian":[1.1827137E3,3.920328E2,7.906809E2,7.26953E1,3.1933752E2,7.016523E2,8.902864E1,3.2604546E1,4.009075E1,5.941667E0,3.1339584E2,6.630477E2,3.8604595E1,6.288757E1,2.6141068E1,9.666282E0,2.2938263E1,3.682955E1,3.2611976E0,3.4215243E0,2.5201426E0,3.017596E2,1.163625E1,6.0408375E1,6.0263934E2,9.189393E0,2.9415203E1,5.921066E1,3.6769116E0,6.0247064E0,2.0116362E1,2.4819543E0,7.184327E0,1.7233835E1,5.7044277E0,2.9650229E1,7.179325E0,3.0030685E2,1.4527633E0,7.7801194E0,3.8561304E0,1.35089855E1,4.6899387E1,4.7784625E2,1.2479309E2,2.8945436E0,6.29485E0,1.3075E0,2.8107702E1,5.5677402E1,3.5332537E0,1.6953949E0,1.9815166E0,4.8738337E0,1.1508727E0,1.7515236E1,2.6011255E0,1.6095835E1,1.1380018E0,1.9484073E0,3.7560205E0,2.0237591E0,2.7626469E1,3.764854E0,3.4144711E0,2.9894577E2,1.3610702E0,1.0714133E0,6.708706E0,1.4361272E0,2.4200034E0,1.3950578E0,1.2113928E1,3.9583218E1,7.3161707E0,1.0483963E2,3.7300662E2,4.5896263E1,7.889683E1,2.6966583E1,1.141119E0,5.402617E1,1.6512336E0,1.5632627E0,1.9699908E0,1.6260845E1,1.2543904E0],"tree_param":{"num_deleted":"0","num_feature":"1536","num_nodes":"87","size_leaf_vector":"1"}},{"base_weights":[-3.2055578E-1,-6.535973E-2,-4.9704343E-1,2.188765E-1,-2.5262094E-1,8.246719E-2,-5.2982235E-1,1.1484205E-2,5.4060924E-1,-4.5730737E-1,-1.1073054E-1,-2.1936178E-1,6.5524906E-1,-5.7258755E-1,-2.5700846E-1,-2.0049676E-1,3.832652E-1,1.3261581E-2,7.3610413E-1,-4.8663858E-1,2.1640441E-1,-2.1053594E-1,5.097989E-1,-3.82165E-1,2.502286E-1,-1.4486432E-1,1.0233818E0,-5.806995E-1,4.6399477E-1,-4.1743842E-1,2.4852917E-1,-3.6191168E-1,3.6653784E-1,-2.4831623E-1,5.9146434E-1,5.741757E-1,-5.1713264E-1,-1.4316103E-1,8.374476E-1,2.0113504E-1,-5.332449E-1,4.7837654E-1,-2.9662323E-1,9.1755086E-1,-1.875464E-1,-5.246213E-1,4.069081E-1,3.330977E-1,8.6970195E-2,-2.6715168E-1,-6.035401E-1,-1.047765E-1,2.5005302E-1,3.448607E-1,-4.9611393E-1,-2.2461584E-1,9.1826E-1,2.3051444E-1,-1.3965234E-1,-1.6141771E-1,2.1245354E-1,2.1190405E-1,-1.7764223E-1,2.5931254E-1,-3.0112052E-3,2.6921043E-1,-8.2458876E-2,-1.8208763E-1,4.1765273E-2,-1.5533534E-1,1.7301525E-1,-1.1566379E-1,2.6628122E-1,-1.4959295E-1,3.1281415E-1,-1.6775182E-1,1.3854782E-1,2.4070317E-1,-1.5496892E-1,-1.15607E-1,8.2208E-2,-1.01572424E-1,3.1476504E-1,-1.6666903E-1,1.6609353E-1,-1.8454808E-1,5.8072146E-2,1.9218256E-1,-1.0779198E-2,2.0143153E-1,-1.2447227E-1,-1.822315E-1,1.3703848E-1,3.3162645E-1,-1.422971E-1,2.0946054E-1,-1.6193122E-1,-1.7362829E-1,2.0983656E-1,-1.1099197E-1,3.6460674E-1],"categories":[],"categories_nodes":[],"categories_segments":[],"categories_sizes":[],"default_left":[0,0,0,0,0,0,0,0,0,0,0,0,0,0,0,0,0,0,0,0,0,0,0,0,0,0,0,0,0,0,0,0,0,0,0,0,0,0,0,0,0,0,0,0,0,0,0,0,0,0,0,0,0,0,0,0,0,0,0,0,0,0,0,0,0,0,0,0,0,0,0,0,0,0,0,0,0,0,0,0,0,0,0,0,0,0,0,0,0,0,0,0,0,0,0,0,0,0,0,0,0],"id":8,"left_children":[1,3,5,7,9,11,13,15,17,19,21,23,25,27,29,31,33,35,37,39,-1,41,43,45,-1,-1,47,49,51,53,55,57,59,61,63,65,67,69,71,73,75,77,79,81,83,85,87,-1,-1,89,91,-1,-1,93,95,97,99,-1,-1,-1,-1,-1,-1,-1,-1,-1,-1,-1,-1,-1,-1,-1,-1,-1,-1,-1,-1,-1,-1,-1,-1,-1,-1,-1,-1,-1,-1,-1,-1,-1,-1,-1,-1,-1,-1,-1,-1,-1,-1,-1,-1],"loss_changes":[4.6976555E1,2.2829296E1,1.1761642E1,1.1368378E1,7.4540977E0,6.002632E0,6.6661224E0,8.326363E0,6.876339E0,3.9973125E0,9.640514E0,4.2537003E0,5.4993906E0,4.50766E0,6.6692123E0,6.294423E0,5.1902375E0,5.9742613E0,4.460455E0,3.4251385E0,0E0,8.048033E0,6.3195515E0,2.5243754E0,0E0,0E0,2.741928E-1,3.4236145E0,1.6342552E0,3.878934E0,6.584383E0,6.552768E0,5.1447964E0,3.7705698E0,4.7923594E0,2.9216912E0,6.9379663E-1,1.8865676E0,3.0303745E0,4.81613E0,2.7663097E0,5.3108845E0,6.1372614E0,2.6396542E0,2.7100003E0,1.2798352E0,4.0666884E-1,0E0,0E0,5.240923E0,2.2026978E0,0E0,0E0,4.495411E0,3.3201818E0,4.5277476E0,3.7140923E0,0E0,0E0,0E0,0E0,0E0,0E0,0E0,0E0,0E0,0E0,0E0,0E0,0E0,0E0,0E0,0E0,0E0,0E0,0E0,0E0,0E0,0E0,0E0,0E0,0E0,0E0,0E0,0E0,0E0,0E0,0E0,0E0,0E0,0E0,0E0,0E0,0E0,0E0,0E0,0E0,0E0,0E0,0E0,0E0],"parents":[2147483647,0,0,1,1,2,2,3,3,4,4,5,5,6,6,7,7,8,8,9,9,10,10,11,11,12,12,13,13,14,14,15,15,16,16,17,17,18,18,19,19,21,21,22,22,23,23,26,26,27,27,28,28,29,29,30,30,31,31,32,32,33,33,34,34,35,35,36,36,37,37,38,38,39,39,40,40,41,41,42,42,43,43,44,44,45,45,46,46,49,49,50,50,53,53,54,54,55,55,56,56],"right_children":[2,4,6,8,10,12,14,16,18,20,22,24,26,28,30,32,34,36,38,40,-1,42,44,46,-1,-1,48,50,52,54,56,58,60,62,64,66,68,70,72,74,76,78,80,82,84,86,88,-1,-1,90,92,-1,-1,94,96,98,100,-1,-1,-1,-1,-1,-1,-1,-1,-1,-1,-1,-1,-1,-1,-1,-1,-1,-1,-1,-1,-1,-1,-1,-1,-1,-1,-1,-1,-1,-1,-1,-1,-1,-1,-1,-1,-1,-1,-1,-1,-1,-1,-1,-1],"split_conditions":[4.6846265E-1,6.197677E-1,1.2908532E-1,1.333592E-1,2.136438E-1,5.2822095E-1,1.0156759E0,1.9963041E-1,1.9284202E-2,1.4904124E-1,3.0737096E-1,1.9767627E-1,4.982483E-1,1.2581474E0,2.855508E-1,1.0751237E0,4.8106022E-2,6.101239E-1,7.0187354E-1,6.2121317E-2,2.1640441E-1,2.6962745E-1,3.5074968E-2,4.7852555E-1,2.502286E-1,-1.4486432E-1,5.7609737E-1,3.3050887E-2,1.4470156E-1,1.6827926E-1,7.069191E-1,1.3991736E-2,3.1594094E-2,6.100824E-4,4.2709225E-1,9.677899E-1,1.014289E0,3.6698318E-1,9.147444E-3,2.8273857E-1,1.5767771E0,9.430121E-1,3.1514E-1,7.3912024E-2,1.2339456E0,2.7824493E-2,1.03089824E-1,3.330977E-1,8.6970195E-2,2.1164106E-1,1.8665348E-1,-1.047765E-1,2.5005302E-1,1.291127E-1,1.2840965E-2,6.2571025E-1,6.282844E-2,2.3051444E-1,-1.3965234E-1,-1.6141771E-1,2.1245354E-1,2.1190405E-1,-1.7764223E-1,2.5931254E-1,-3.0112052E-3,2.6921043E-1,-8.2458876E-2,-1.8208763E-1,4.1765273E-2,-1.5533534E-1,1.7301525E-1,-1.1566379E-1,2.6628122E-1,-1.4959295E-1,3.1281415E-1,-1.6775182E-1,1.3854782E-1,2.4070317E-1,-1.5496892E-1,-1.15607E-1,8.2208E-2,-1.01572424E-1,3.1476504E-1,-1.6666903E-1,1.6609353E-1,-1.8454808E-1,5.8072146E-2,1.9218256E-1,-1.0779198E-2,2.0143153E-1,-1.2447227E-1,-1.822315E-1,1.3703848E-1,3.3162645E-1,-1.422971E-1,2.0946054E-1,-1.6193122E-1,-1.7362829E-1,2.0983656E-1,-1.1099197E-1,3.6460674E-1],"split_indices":[1317,346,1505,913,1504,538,5,265,1032,171,459,1338,726,243,72,906,1484,984,119,310,0,1384,924,1296,0,0,760,555,57,70,440,438,1162,1227,70,1139,1039,6,917,876,81,952,998,994,80,771,1,0,0,819,1032,0,0,339,109,558,687,0,0,0,0,0,0,0,0,0,0,0,0,0,0,0,0,0,0,0,0,0,0,0,0,0,0,0,0,0,0,0,0,0,0,0,0,0,0,0,0,0,0,0,0],"split_type":[0,0,0,0,0,0,0,0,0,0,0,0,0,0,0,0,0,0,0,0,0,0,0,0,0,0,0,0,0,0,0,0,0,0,0,0,0,0,0,0,0,0,0,0,0,0,0,0,0,0,0,0,0,0,0,0,0,0,0,0,0,0,0,0,0,0,0,0,0,0,0,0,0,0,0,0,0,0,0,0,0,0,0,0,0,0,0,0,0,0,0,0,0,0,0,0,0,0,0,0,0],"sum_hessian":[1.042742E3,4.2687027E2,6.1587164E2,1.6946991E2,2.5740036E2,3.288953E1,5.829821E2,1.03675385E2,6.579453E1,1.04470985E2,1.5292937E2,2.1943415E1,1.0946117E1,5.0303027E2,7.995182E1,6.632124E1,3.7354137E1,1.808312E1,4.7711414E1,1.0250719E2,1.9638E0,1.3230954E2,2.0619833E1,1.9558098E1,2.3853173E0,2.5990653E0,8.347053E0,4.995607E2,3.4695876E0,6.082391E1,1.9127909E1,5.190691E1,1.4414335E1,9.2131E0,2.8141035E1,8.748583E0,9.3345375E0,4.8882113E0,4.2823204E1,6.2950478E0,9.621214E1,1.4190815E1,1.1811872E2,1.2812391E1,7.8074427E0,1.685102E1,2.7070768E0,7.003153E0,1.3438997E0,3.4782093E1,4.647786E2,1.1010857E0,2.3685017E0,5.3737273E0,5.5450184E1,1.1598517E1,7.5293922E0,3.8192801E0,4.808763E1,3.793903E0,1.0620432E1,2.1603346E0,7.052766E0,1.9057377E1,9.083658E0,6.295308E0,2.4532743E0,8.277021E0,1.0575161E0,3.3997312E0,1.48848E0,1.4236127E0,4.139959E1,3.6595767E0,2.6354709E0,9.4195816E1,2.0163267E0,1.0851107E1,3.3397083E0,1.0250445E2,1.5614269E1,1.0664756E0,1.1745915E1,5.384414E0,2.4230282E0,1.5091927E1,1.759094E0,1.4796317E0,1.2274451E0,4.248716E0,3.0533379E1,4.6350174E2,1.276881E0,2.60538E0,2.7683473E0,1.4267135E0,5.4023468E1,8.655159E0,2.9433584E0,1.3650627E0,6.1643295E0],"tree_param":{"num_deleted":"0","num_feature":"1536","num_nodes":"101","size_leaf_vector":"1"}},{"base_weights":[1.8152769E-1,5.691585E-1,-1.8616782E-1,1.15446255E-1,6.275983E-1,3.0941343E-1,-4.1226703E-1,-4.316587E-1,4.3283573E-1,6.5450037E-1,6.0264066E-2,4.254756E-1,-4.2542022E-1,-5.00097E-1,-2.0482315E-2,-5.3494775E-1,1.4777553E-1,5.072889E-1,-1.6849709E-1,-4.1511256E-1,6.6656095E-1,4.1389525E-1,-5.786589E-1,5.430793E-1,-1.0895307E-1,-5.547089E-1,3.72568E-1,-5.234007E-1,2.3705932E-1,5.075341E-1,-3.4530368E-1,9.5933035E-2,-1.8097551E-1,5.748868E-1,-3.1330165E-1,-4.9022418E-3,-1.5005273E-1,6.7291963E-1,-1.2283107E-1,-3.512282E-1,1.8849166E-1,6.594227E-2,-2.190743E-1,6.2128955E-1,2.145171E-2,-4.8271292E-1,4.8759943E-1,-1.7493804E-1,2.0142046E-3,1.601621E-1,-1.0334551E-2,3.7271625E-1,-5.402895E-1,-3.555129E-1,8.2498163E-1,-1.8429121E-1,7.0018107E-1,-5.2848154E-1,1.8675746E-1,1.901126E-1,-1.16869055E-1,-1.24403164E-1,-1.9645313E-2,2.0352395E-1,-7.617737E-2,-1.3511981E-1,-1.1758787E-2,1.9318086E-1,-1.7377764E-1,-1.343005E-1,1.8581736E-1,1.4721459E-1,-1.7999998E-1,2.1344341E-1,-1.22036114E-1,2.0449038E-1,-1.2353943E-1,-1.7424652E-1,-5.4038834E-2,-1.4911132E-1,4.6801396E-2,2.4425259E-2,3.051815E-1,-1.5038261E-1,1.6770089E-1,2.390777E-1,-1.09024584E-1,5.4689184E-2,-1.7758821E-1,-9.177156E-2,2.1469186E-1],"categories":[],"categories_nodes":[],"categories_segments":[],"categories_sizes":[],"default_left":[0,0,0,0,0,0,0,0,0,0,0,0,0,0,0,0,0,0,0,0,0,0,0,0,0,0,0,0,0,0,0,0,0,0,0,0,0,0,0,0,0,0,0,0,0,0,0,0,0,0,0,0,0,0,0,0,0,0,0,0,0,0,0,0,0,0,0,0,0,0,0,0,0,0,0,0,0,0,0,0,0,0,0,0,0,0,0,0,0,0,0],"id":9,"left_children":[1,3,5,7,9,11,13,15,17,19,21,23,25,27,29,31,-1,33,-1,35,37,39,41,43,45,47,49,51,53,55,57,-1,-1,59,61,-1,-1,63,-1,65,-1,-1,-1,67,69,71,73,-1,-1,-1,-1,75,77,79,81,83,85,87,89,-1,-1,-1,-1,-1,-1,-1,-1,-1,-1,-1,-1,-1,-1,-1,-1,-1,-1,-1,-1,-1,-1,-1,-1,-1,-1,-1,-1,-1,-1,-1,-1],"loss_changes":[1.5196992E2,1.368689E1,6.148169E1,1.0681707E1,6.9734955E0,1.4860378E1,1.2943195E1,2.4295921E0,3.153983E0,5.93454E0,5.1884055E0,9.432837E0,2.6803937E0,5.4057846E0,1.21773405E1,1.4124026E0,0E0,2.2089396E0,0E0,1.7860937E-1,3.245514E0,2.6293497E0,1.1555476E0,4.9805336E0,6.418881E0,3.3952808E-1,2.7715254E-1,4.7167053E0,3.8155367E0,3.7352343E0,4.379303E0,0E0,0E0,2.183897E0,5.903828E-2,0E0,0E0,2.3713531E0,0E0,1.0164666E-1,0E0,0E0,0E0,3.2661934E0,5.044782E0,2.298437E0,2.5280426E0,0E0,0E0,0E0,0E0,1.761618E0,4.1761093E0,4.9263936E-1,6.85858E-1,1.8553019E0,2.4887981E0,1.5938587E0,3.3423424E0,0E0,0E0,0E0,0E0,0E0,0E0,0E0,0E0,0E0,0E0,0E0,0E0,0E0,0E0,0E0,0E0,0E0,0E0,0E0,0E0,0E0,0E0,0E0,0E0,0E0,0E0,0E0,0E0,0E0,0E0,0E0,0E0],"parents":[2147483647,0,0,1,1,2,2,3,3,4,4,5,5,6,6,7,7,8,8,9,9,10,10,11,11,12,12,13,13,14,14,15,15,17,17,19,19,20,20,21,21,22,22,23,23,24,24,25,25,26,26,27,27,28,28,29,29,30,30,33,33,34,34,37,37,39,39,43,43,44,44,45,45,46,46,51,51,52,52,53,53,54,54,55,55,56,56,57,57,58,58],"right_children":[2,4,6,8,10,12,14,16,18,20,22,24,26,28,30,32,-1,34,-1,36,38,40,42,44,46,48,50,52,54,56,58,-1,-1,60,62,-1,-1,64,-1,66,-1,-1,-1,68,70,72,74,-1,-1,-1,-1,76,78,80,82,84,86,88,90,-1,-1,-1,-1,-1,-1,-1,-1,-1,-1,-1,-1,-1,-1,-1,-1,-1,-1,-1,-1,-1,-1,-1,-1,-1,-1,-1,-1,-1,-1,-1,-1],"split_conditions":[1.17354475E-1,4.3417725E-1,2.5812098E-1,4.6377647E-1,7.67977E-1,4.1253656E-1,8.300876E-2,5.6897587E-1,9.3576975E-2,3.7299715E-2,3.3442974E-1,5.987648E-1,7.3767316E-1,1.2036141E0,8.443565E-2,3.8121477E-2,1.4777553E-1,1.1666546E0,-1.6849709E-1,2.2703119E-1,6.2675256E-1,2.6939765E-1,7.090336E-1,2.9685732E-2,4.4185102E-1,1.6748446E0,1.4492112E-1,1.6451722E-1,8.9313275E-1,9.8983094E-2,5.727874E-1,9.5933035E-2,-1.8097551E-1,7.016113E-1,7.13186E-1,-4.9022418E-3,-1.5005273E-1,2.0493145E0,-1.2283107E-1,6.8927914E-2,1.8849166E-1,6.594227E-2,-2.190743E-1,4.2281735E-1,1.5294972E-1,1.7038643E-1,8.868712E-1,-1.7493804E-1,2.0142046E-3,1.601621E-1,-1.0334551E-2,7.4379927E-1,2.2652149E-1,5.497352E-1,9.0478694E-1,9.103582E-2,5.622872E-1,2.244335E-1,1.098161E0,1.901126E-1,-1.16869055E-1,-1.24403164E-1,-1.9645313E-2,2.0352395E-1,-7.617737E-2,-1.3511981E-1,-1.1758787E-2,1.9318086E-1,-1.7377764E-1,-1.343005E-1,1.8581736E-1,1.4721459E-1,-1.7999998E-1,2.1344341E-1,-1.22036114E-1,2.0449038E-1,-1.2353943E-1,-1.7424652E-1,-5.4038834E-2,-1.4911132E-1,4.6801396E-2,2.4425259E-2,3.051815E-1,-1.5038261E-1,1.6770089E-1,2.390777E-1,-1.09024584E-1,5.4689184E-2,-1.7758821E-1,-9.177156E-2,2.1469186E-1],"split_indices":[1019,391,408,1292,906,224,16,237,1321,352,658,606,823,20,605,711,0,732,0,277,730,1182,117,771,103,1173,11,653,973,1222,17,0,0,63,0,0,0,170,0,57,0,0,0,501,1000,358,243,0,0,0,0,588,589,254,30,57,280,1247,748,0,0,0,0,0,0,0,0,0,0,0,0,0,0,0,0,0,0,0,0,0,0,0,0,0,0,0,0,0,0,0,0],"split_type":[0,0,0,0,0,0,0,0,0,0,0,0,0,0,0,0,0,0,0,0,0,0,0,0,0,0,0,0,0,0,0,0,0,0,0,0,0,0,0,0,0,0,0,0,0,0,0,0,0,0,0,0,0,0,0,0,0,0,0,0,0,0,0,0,0,0,0,0,0,0,0,0,0,0,0,0,0,0,0,0,0,0,0,0,0,0,0,0,0,0,0],"sum_hessian":[1.0644869E3,5.1792926E2,5.465577E2,5.9438538E1,4.5849072E2,1.7111859E2,3.754391E2,2.1690014E1,3.7748524E1,4.375874E2,2.090331E1,1.4814159E2,2.2977E1,3.0646054E2,6.897852E1,1.9888569E1,1.801446E0,3.557508E1,2.1734421E0,4.50644E0,4.3308096E2,1.3682511E1,7.2208004E0,1.2140879E2,2.6732803E1,2.0035713E1,2.941286E0,2.9735037E2,9.110168E0,2.6057693E1,4.292083E1,1.1993077E0,1.868926E1,3.314418E1,2.4309003E0,1.0018623E0,3.504578E0,4.3090906E2,2.171893E0,2.8552897E0,1.0827221E1,1.0803304E0,6.14047E0,1.0541268E2,1.5996108E1,1.6552773E1,1.0180031E1,1.9033619E1,1.0020955E0,1.8832537E0,1.0580323E0,5.110654E0,2.9223972E2,4.7340164E0,4.3761516E0,5.685076E0,2.0372618E1,3.19335E1,1.0987331E1,3.1562136E1,1.5820444E0,1.2473316E0,1.1835687E0,4.2863654E2,2.2725275E0,1.8301779E0,1.0251119E0,1.03916084E2,1.4965967E0,9.104437E0,6.891671E0,1.4375855E0,1.5115188E1,8.305535E0,1.8744951E0,3.7608726E0,1.3497813E0,2.621274E2,3.0112309E1,3.7302518E0,1.0037646E0,1.1916367E0,3.184515E0,4.2137074E0,1.4713688E0,1.890385E1,1.4687662E0,2.4646711E0,2.9468828E1,5.9067206E0,5.0806103E0],"tree_param":{"num_deleted":"0","num_feature":"1536","num_nodes":"91","size_leaf_vector":"1"}},{"base_weights":[5.1296104E-2,-4.163883E-1,2.3592165E-1,5.0558534E-2,-4.9220797E-1,2.97002E-1,-2.5867474E-1,-3.9520517E-1,3.8728637E-1,-5.307759E-1,1.1058651E-1,3.9926615E-1,8.164783E-2,-4.7525838E-1,2.505588E-1,3.5894307E-1,-5.304345E-1,6.435819E-1,-4.0063983E-1,-5.42082E-1,1.8633837E-1,-4.4781974E-1,4.8635286E-1,-1.9543105E-1,4.2852765E-1,2.706805E-1,-1.2284109E-1,-5.279729E-1,2.953883E-1,-1.8644103E-1,4.3610257E-1,1.5360294E-1,1.0630703E-3,-1.7157276E-1,1.7986972E-2,7.6693964E-1,-2.286289E-1,2.9235622E-2,-1.5089302E-1,-5.5223894E-1,3.9052632E-1,-1.5522201E-1,-2.9449032E-3,-1.0645624E-1,6.5663004E-1,4.759591E-1,-4.2374307E-1,2.3242281E-1,5.2357113E-1,3.45951E-1,-2.8031576E-1,-4.813918E-1,1.0612228E-1,-5.70676E-1,9.3407325E-2,-2.062104E-2,1.5777534E-1,-4.1664505E-1,6.178777E-1,2.5559253E-1,-8.9142144E-2,-1.8068225E-3,-9.945195E-2,-1.6910356E-1,7.784086E-2,3.5557307E-2,1.3806793E-1,1.965991E-2,2.1672273E-1,-2.9474648E-2,1.9755574E-1,-1.828604E-1,5.0912354E-2,1.2248226E-1,-3.5648458E-2,1.9424476E-2,1.7006426E-1,-3.3453044E-2,1.3471723E-1,-1.8070666E-1,7.411293E-2,-1.694E-1,1.7722999E-1,-9.556354E-2,9.216288E-2,-1.7867744E-1,4.4400994E-2,-1.2406937E-1,1.5819637E-1,-1.6059634E-1,-5.987126E-4,2.2135831E-1,-1.2994215E-1],"categories":[],"categories_nodes":[],"categories_segments":[],"categories_sizes":[],"default_left":[0,0,0,0,0,0,0,0,0,0,0,0,0,0,0,0,0,0,0,0,0,0,0,0,0,0,0,0,0,0,0,0,0,0,0,0,0,0,0,0,0,0,0,0,0,0,0,0,0,0,0,0,0,0,0,0,0,0,0,0,0,0,0,0,0,0,0,0,0,0,0,0,0,0,0,0,0,0,0,0,0,0,0,0,0,0,0,0,0,0,0,0,0],"id":10,"left_children":[1,3,5,7,9,11,13,15,17,19,21,23,25,27,29,31,33,35,37,39,-1,41,43,45,47,49,51,53,55,-1,57,-1,-1,-1,-1,59,61,-1,-1,63,65,-1,-1,-1,67,69,71,73,75,77,79,81,83,85,87,-1,-1,89,91,-1,-1,-1,-1,-1,-1,-1,-1,-1,-1,-1,-1,-1,-1,-1,-1,-1,-1,-1,-1,-1,-1,-1,-1,-1,-1,-1,-1,-1,-1,-1,-1,-1,-1],"loss_changes":[9.302864E1,1.0822197E1,2.3407299E1,6.683856E0,6.160671E0,1.5115929E1,9.540554E0,2.1503263E0,5.3651843E0,3.5516434E0,3.7032638E0,8.195129E0,8.642722E0,2.6047134E0,4.5012846E0,1.8959308E-1,4.4320393E-1,2.269908E0,3.9684796E-1,2.536316E0,0E0,2.1444142E-1,1.7239199E0,3.6577432E0,8.164574E0,4.9099607E0,8.890794E0,1.5598965E0,4.1392583E-1,0E0,3.6902103E0,0E0,0E0,0E0,0E0,1.8171654E0,7.0886075E-2,0E0,0E0,2.4004822E0,6.596625E-3,0E0,0E0,0E0,3.0287457E-1,7.13837E-1,2.01686E0,9.123957E0,5.897934E0,4.887002E0,2.6113884E0,4.0963564E0,5.7794366E0,1.0419655E0,1.2102836E0,0E0,0E0,2.1980458E-1,2.6723657E0,0E0,0E0,0E0,0E0,0E0,0E0,0E0,0E0,0E0,0E0,0E0,0E0,0E0,0E0,0E0,0E0,0E0,0E0,0E0,0E0,0E0,0E0,0E0,0E0,0E0,0E0,0E0,0E0,0E0,0E0,0E0,0E0,0E0,0E0],"parents":[2147483647,0,0,1,1,2,2,3,3,4,4,5,5,6,6,7,7,8,8,9,9,10,10,11,11,12,12,13,13,14,14,15,15,16,16,17,17,18,18,19,19,21,21,22,22,23,23,24,24,25,25,26,26,27,27,28,28,30,30,35,35,36,36,39,39,40,40,44,44,45,45,46,46,47,47,48,48,49,49,50,50,51,51,52,52,53,53,54,54,57,57,58,58],"right_children":[2,4,6,8,10,12,14,16,18,20,22,24,26,28,30,32,34,36,38,40,-1,42,44,46,48,50,52,54,56,-1,58,-1,-1,-1,-1,60,62,-1,-1,64,66,-1,-1,-1,68,70,72,74,76,78,80,82,84,86,88,-1,-1,90,92,-1,-1,-1,-1,-1,-1,-1,-1,-1,-1,-1,-1,-1,-1,-1,-1,-1,-1,-1,-1,-1,-1,-1,-1,-1,-1,-1,-1,-1,-1,-1,-1,-1,-1],"split_conditions":[9.829496E-2,5.7799333E-1,3.614679E-1,1.0159127E0,4.1800472E-1,4.5159078E-1,1.2231679E0,2.5751135E-1,1.9268969E-1,1.1723119E0,6.9134325E-2,2.379289E-1,2.5644892E-1,1.2813417E0,1.4446361E-1,6.691773E-2,1.7377314E-1,2.701853E-1,8.047462E-2,1.6599905E0,1.8633837E-1,1.1200699E-1,9.4595605E-1,1.8950976E-2,6.0587555E-1,1.279696E0,1.0519058E0,4.5612347E-1,2.413675E-1,-1.8644103E-1,7.570943E-1,1.5360294E-1,1.0630703E-3,-1.7157276E-1,1.7986972E-2,1.0002261E0,7.730811E-1,2.9235622E-2,-1.5089302E-1,5.170392E-1,3.040376E-1,-1.5522201E-1,-2.9449032E-3,-1.0645624E-1,9.019524E-3,1.0490229E-1,1.6438076E-1,6.9219536E-1,4.064917E-2,1.8832577E-2,2.5040913E-1,6.688908E-1,5.7862986E-2,5.632949E-1,5.53983E-1,-2.062104E-2,1.5777534E-1,4.7785616E-1,3.2568452E-1,2.5559253E-1,-8.9142144E-2,-1.8068225E-3,-9.945195E-2,-1.6910356E-1,7.784086E-2,3.5557307E-2,1.3806793E-1,1.965991E-2,2.1672273E-1,-2.9474648E-2,1.9755574E-1,-1.828604E-1,5.0912354E-2,1.2248226E-1,-3.5648458E-2,1.9424476E-2,1.7006426E-1,-3.3453044E-2,1.3471723E-1,-1.8070666E-1,7.411293E-2,-1.694E-1,1.7722999E-1,-9.556354E-2,9.216288E-2,-1.7867744E-1,4.4400994E-2,-1.2406937E-1,1.5819637E-1,-1.6059634E-1,-5.987126E-4,2.2135831E-1,-1.2994215E-1],"split_indices":[1019,364,352,81,730,1152,53,1322,323,1137,624,117,261,357,1085,1,849,854,218,1270,0,125,1038,1208,346,58,1457,443,6,0,776,0,0,0,0,405,5,0,0,658,8,0,0,0,1274,275,1217,1483,1016,1302,1077,1518,605,1154,102,0,0,76,1021,0,0,0,0,0,0,0,0,0,0,0,0,0,0,0,0,0,0,0,0,0,0,0,0,0,0,0,0,0,0,0,0,0,0],"split_type":[0,0,0,0,0,0,0,0,0,0,0,0,0,0,0,0,0,0,0,0,0,0,0,0,0,0,0,0,0,0,0,0,0,0,0,0,0,0,0,0,0,0,0,0,0,0,0,0,0,0,0,0,0,0,0,0,0,0,0,0,0,0,0,0,0,0,0,0,0,0,0,0,0,0,0,0,0,0,0,0,0,0,0,0,0,0,0,0,0,0,0,0,0],"sum_hessian":[1.0752499E3,3.039764E2,7.7127344E2,4.2509346E1,2.6146704E2,6.8685016E2,8.442328E1,1.821822E1,2.4291126E1,2.4585617E2,1.561088E1,4.6512473E2,2.2172546E2,5.9278206E1,2.5145073E1,2.5185297E0,1.569969E1,1.8467302E1,5.823824E0,2.4399077E2,1.865402E0,6.202269E0,9.40861E0,2.1546412E1,4.435783E2,1.1504887E2,1.06676605E2,5.5777744E1,3.500463E0,3.9993327E0,2.114574E1,1.452356E0,1.0661737E0,1.4698435E1,1.0012549E0,1.6284819E1,2.182484E0,1.0007461E0,4.823078E0,2.417656E2,2.225175E0,5.195551E0,1.006718E0,1.4014006E0,8.00721E0,5.192449E0,1.6353964E1,1.4592798E2,2.9765033E2,1.0154864E2,1.3500225E1,4.114388E1,6.553273E1,5.226737E1,3.510376E0,1.6291014E0,1.8713617E0,3.488469E0,1.765727E1,1.526431E1,1.020508E0,1.0244107E0,1.1580732E0,2.38707E2,3.0585887E0,1.0047328E0,1.220442E0,1.0017394E0,7.0054703E0,1.3640177E0,3.8284316E0,1.2434114E1,3.9198487E0,9.7135445E1,4.8792534E1,2.5888018E1,2.717623E2,1.8663067E1,8.2885574E1,8.293475E0,5.20675E0,3.861776E1,2.5261173E0,2.0871344E1,4.4661385E1,5.068159E1,1.5857754E0,1.6405288E0,1.869847E0,2.4859486E0,1.0025203E0,1.6115496E1,1.541775E0],"tree_param":{"num_deleted":"0","num_feature":"1536","num_nodes":"93","size_leaf_vector":"1"}},{"base_weights":[-2.720199E-1,-4.140572E-2,-4.4855356E-1,1.9820952E-1,-2.0646344E-1,9.811097E-2,-4.8261553E-1,-6.7967154E-2,3.744895E-1,-4.6367282E-1,-9.686597E-2,-1.6062395E-1,2.9358667E-1,-5.3308105E-1,-2.2891602E-1,3.753915E-1,-3.3225462E-1,1.4161834E-1,6.30517E-1,-5.382752E-1,6.909206E-2,-1.4567865E-1,7.931147E-1,-2.0772366E-2,7.351242E-1,-1.7851415E-1,-5.606974E-1,-3.9705375E-1,2.3865713E-1,7.698646E-1,1.2509152E-2,-5.024472E-1,5.072229E-2,5.9676427E-1,-7.110756E-2,-1.3526437E-1,6.9843096E-1,-5.807939E-1,4.064042E-1,6.1008775E-1,-1.516462E-1,6.790329E-1,-1.8632638E-1,8.925984E-4,2.8552783E-1,3.3393568E-1,-1.6008815E-1,-3.4536883E-2,2.7026275E-1,-5.204265E-1,2.1079054E-1,-5.688527E-1,3.3560216E-1,7.258652E-2,-5.053578E-1,-4.246792E-1,5.539783E-1,2.8098857E-1,-1.07222006E-1,-1.5042773E-1,1.7886774E-1,1.3092533E-1,-1.7416921E-1,1.1526162E-1,-1.5801242E-1,2.3086514E-1,-8.5107416E-2,1.717284E-1,-7.548417E-2,-4.5338437E-2,2.3732236E-1,-1.8363371E-1,3.2044955E-2,1.5016763E-1,3.231974E-2,2.5835273E-1,-1.3927807E-2,-1.1885249E-1,2.9756075E-1,-8.700669E-2,5.3172816E-2,-1.2628804E-1,1.8711258E-1,5.3709466E-2,-1.729432E-1,2.3890215E-1,-1.2500747E-1,-1.7251164E-1,7.932007E-2,-1.0200456E-1,2.2547115E-1,-1.5256456E-1,1.5693837E-1,-1.733437E-1,8.995274E-3,3.525622E-2,-1.5648343E-1,-8.094616E-2,2.4027205E-1],"categories":[],"categories_nodes":[],"categories_segments":[],"categories_sizes":[],"default_left":[0,0,0,0,0,0,0,0,0,0,0,0,0,0,0,0,0,0,0,0,0,0,0,0,0,0,0,0,0,0,0,0,0,0,0,0,0,0,0,0,0,0,0,0,0,0,0,0,0,0,0,0,0,0,0,0,0,0,0,0,0,0,0,0,0,0,0,0,0,0,0,0,0,0,0,0,0,0,0,0,0,0,0,0,0,0,0,0,0,0,0,0,0,0,0,0,0,0,0],"id":11,"left_children":[1,3,5,7,9,11,13,15,17,19,21,-1,23,25,27,29,31,33,35,37,39,41,43,45,47,49,51,53,55,57,59,61,63,65,67,-1,69,71,73,75,-1,77,79,-1,-1,81,-1,-1,-1,83,85,87,89,91,93,95,97,-1,-1,-1,-1,-1,-1,-1,-1,-1,-1,-1,-1,-1,-1,-1,-1,-1,-1,-1,-1,-1,-1,-1,-1,-1,-1,-1,-1,-1,-1,-1,-1,-1,-1,-1,-1,-1,-1,-1,-1,-1,-1],"loss_changes":[3.7190926E1,1.5757991E1,9.685181E0,7.6548576E0,6.602029E0,4.0197177E0,6.1182327E0,7.8145995E0,5.751891E0,2.8268757E0,7.353312E0,0E0,3.4133146E0,3.8732605E0,6.5900755E0,3.566158E0,2.7400918E0,5.134796E0,3.7208424E0,2.7135544E0,3.2637343E0,5.449534E0,1.1025033E0,2.9565065E0,1.5424194E0,4.2079315E0,2.9393082E0,3.1466818E0,4.936554E0,2.581666E0,4.5070705E0,2.3748293E0,2.844727E0,2.7830548E0,4.4114413E0,0E0,3.5848026E0,1.3453388E0,3.732544E-2,9.2188144E-1,0E0,2.9741914E0,5.786217E0,0E0,0E0,2.3720436E0,0E0,0E0,0E0,7.571664E-1,5.882967E0,2.0745544E0,1.3850977E0,3.4949746E0,1.9493952E0,4.7166038E-1,3.4034014E0,0E0,0E0,0E0,0E0,0E0,0E0,0E0,0E0,0E0,0E0,0E0,0E0,0E0,0E0,0E0,0E0,0E0,0E0,0E0,0E0,0E0,0E0,0E0,0E0,0E0,0E0,0E0,0E0,0E0,0E0,0E0,0E0,0E0,0E0,0E0,0E0,0E0,0E0,0E0,0E0,0E0,0E0],"parents":[2147483647,0,0,1,1,2,2,3,3,4,4,5,5,6,6,7,7,8,8,9,9,10,10,12,12,13,13,14,14,15,15,16,16,17,17,18,18,19,19,20,20,21,21,22,22,23,23,24,24,25,25,26,26,27,27,28,28,29,29,30,30,31,31,32,32,33,33,34,34,36,36,37,37,38,38,39,39,41,41,42,42,45,45,49,49,50,50,51,51,52,52,53,53,54,54,55,55,56,56],"right_children":[2,4,6,8,10,12,14,16,18,20,22,-1,24,26,28,30,32,34,36,38,40,42,44,46,48,50,52,54,56,58,60,62,64,66,68,-1,70,72,74,76,-1,78,80,-1,-1,82,-1,-1,-1,84,86,88,90,92,94,96,98,-1,-1,-1,-1,-1,-1,-1,-1,-1,-1,-1,-1,-1,-1,-1,-1,-1,-1,-1,-1,-1,-1,-1,-1,-1,-1,-1,-1,-1,-1,-1,-1,-1,-1,-1,-1,-1,-1,-1,-1,-1,-1],"split_conditions":[4.6846265E-1,6.197677E-1,1.2908532E-1,4.4388804E-1,1.4969752E0,5.7867825E-2,9.9255794E-1,7.007391E-2,3.558713E-2,4.993055E-1,7.5140727E-1,-1.6062395E-1,5.2822095E-1,6.699776E-2,2.855508E-1,2.0502506E-2,3.4820992E-1,4.808178E-1,2.6342654E-1,1.5643251E-1,7.3314077E-1,2.536431E-1,4.780087E-2,4.9559313E-1,1.1486212E0,2.2676054E-1,1.2860466E0,3.6840448E-3,1.7795923E-1,1.3963115E-1,1.5800862E-1,1.9077876E-1,5.67556E-2,3.453714E-1,1.2258139E-1,-1.3526437E-1,3.0606922E-2,3.1583413E-1,3.6021906E-1,1.1480315E-1,-1.516462E-1,1.2782818E-2,7.386228E-1,8.925984E-4,2.8552783E-1,1.2148955E-1,-1.6008815E-1,-3.4536883E-2,2.7026275E-1,6.9257337E-1,6.256707E-1,1.0694305E0,2.0915E-1,3.0199918E-1,8.118239E-1,3.2310772E-1,1.5922812E-3,2.8098857E-1,-1.07222006E-1,-1.5042773E-1,1.7886774E-1,1.3092533E-1,-1.7416921E-1,1.1526162E-1,-1.5801242E-1,2.3086514E-1,-8.5107416E-2,1.717284E-1,-7.548417E-2,-4.5338437E-2,2.3732236E-1,-1.8363371E-1,3.2044955E-2,1.5016763E-1,3.231974E-2,2.5835273E-1,-1.3927807E-2,-1.1885249E-1,2.9756075E-1,-8.700669E-2,5.3172816E-2,-1.2628804E-1,1.8711258E-1,5.3709466E-2,-1.729432E-1,2.3890215E-1,-1.2500747E-1,-1.7251164E-1,7.932007E-2,-1.0200456E-1,2.2547115E-1,-1.5256456E-1,1.5693837E-1,-1.733437E-1,8.995274E-3,3.525622E-2,-1.5648343E-1,-8.094616E-2,2.4027205E-1],"split_indices":[1317,346,1505,538,1201,654,5,457,171,1296,919,0,538,1222,72,811,907,710,866,705,524,1039,34,627,306,761,813,820,761,477,277,1137,1523,999,623,0,1185,832,2,255,0,1523,861,0,0,1284,0,0,0,327,429,1089,11,1245,1305,754,649,0,0,0,0,0,0,0,0,0,0,0,0,0,0,0,0,0,0,0,0,0,0,0,0,0,0,0,0,0,0,0,0,0,0,0,0,0,0,0,0,0,0],"split_type":[0,0,0,0,0,0,0,0,0,0,0,0,0,0,0,0,0,0,0,0,0,0,0,0,0,0,0,0,0,0,0,0,0,0,0,0,0,0,0,0,0,0,0,0,0,0,0,0,0,0,0,0,0,0,0,0,0,0,0,0,0,0,0,0,0,0,0,0,0,0,0,0,0,0,0,0,0,0,0,0,0,0,0,0,0,0,0,0,0,0,0,0,0,0,0,0,0,0,0],"sum_hessian":[9.129874E2,3.9639395E2,5.1659344E2,1.6159897E2,2.34795E2,3.0190022E1,4.8640344E2,6.462774E1,9.697123E1,6.918863E1,1.6560637E2,6.708661E0,2.3481361E1,4.0478336E2,8.162007E1,2.3979778E1,4.064796E1,5.1595455E1,4.5375774E1,6.0681175E1,8.50745E0,1.5778848E2,7.817897E0,1.42726755E1,9.208686E0,2.9788742E1,3.7499463E2,6.0143494E1,2.1476578E1,1.0952395E1,1.3027383E1,2.7925909E1,1.2722051E1,1.58588085E1,3.5736645E1,2.3480844E0,4.3027687E1,5.8436237E1,2.2449393E0,4.3499513E0,4.157499E0,6.673944E0,1.5111453E2,1.4775622E0,6.340335E0,8.643442E0,5.6292334E0,1.5521506E0,7.656535E0,1.5680398E1,1.4108343E1,3.7197537E2,3.0192523E0,1.1332412E1,4.8811085E1,6.8079605E0,1.4668616E1,9.688271E0,1.2641244E0,7.002761E0,6.024622E0,1.7927395E0,2.613317E1,8.276662E0,4.4453883E0,1.3362442E1,2.4963667E0,7.3525014E0,2.8384144E1,4.1686926E0,3.8858997E1,5.5995613E1,2.4406226E0,1.1929269E0,1.0520124E0,2.9210398E0,1.4289113E0,1.4441273E0,5.2298164E0,1.1773645E2,3.3378082E1,2.2719626E0,6.3714795E0,1.0005422E0,1.4679856E1,7.158817E0,6.949526E0,3.695418E2,2.4335735E0,1.2201209E0,1.7991315E0,4.8927293E0,6.4396825E0,4.2922512E1,5.8885703E0,1.0002973E0,5.807663E0,3.3614595E0,1.1307157E1],"tree_param":{"num_deleted":"0","num_feature":"1536","num_nodes":"99","size_leaf_vector":"1"}},{"base_weights":[1.5108334E-1,-2.4437442E-1,4.389727E-1,-4.0456706E-1,4.7082973E-1,5.2822226E-1,3.526415E-2,-5.277571E-1,-4.9413774E-2,6.0431707E-1,-2.5629935E-1,5.860585E-1,1.3554132E-1,3.147843E-1,-4.4531804E-1,2.9044023E-1,-5.528424E-1,2.9736686E-1,-3.421807E-1,6.441342E-1,-2.9590076E-1,-1.654031E-1,3.6283505E-1,6.013854E-1,-5.4954804E-2,3.0325732E-1,-4.3910274E-1,6.031537E-1,-3.9261293E-2,-5.222287E-1,1.4304873E-1,-1.17856674E-1,1.8583725E-1,-5.60507E-1,6.944817E-2,-3.135114E-1,6.3241273E-1,3.8981107E-1,-4.6043095E-1,6.6682124E-1,-4.4448595E-2,-2.694386E-2,-1.06349684E-1,1.358454E-1,2.0501727E-2,6.0702765E-1,-1.8884617E-1,-1.608221E-1,1.6404621E-1,-3.956372E-1,4.292008E-1,-5.7352525E-1,1.1699986E-1,-1.0179531E-1,6.5137076E-1,-4.2823023E-1,4.1912782E-1,1.3489644E-1,-5.721655E-1,1.01273075E-1,-1.6997755E-1,-1.4639942E-1,1.5149635E-1,2.0872627E-1,-9.747765E-2,-9.5303476E-2,1.7385335E-1,1.6064176E-1,-1.534921E-1,2.0346166E-1,2.204697E-2,1.8555743E-1,1.9821217E-2,9.034322E-2,-1.687978E-1,-7.255953E-2,1.6599664E-1,-2.0606503E-2,-1.8409713E-1,2.0237274E-1,1.5960917E-2,-1.7121726E-1,1.2952691E-1,1.917998E-1,-7.6154284E-2,6.944107E-2,-1.0055251E-2,-2.2338912E-2,-1.7580956E-1],"categories":[],"categories_nodes":[],"categories_segments":[],"categories_sizes":[],"default_left":[0,0,0,0,0,0,0,0,0,0,0,0,0,0,0,0,0,0,0,0,0,0,0,0,0,0,0,0,0,0,0,0,0,0,0,0,0,0,0,0,0,0,0,0,0,0,0,0,0,0,0,0,0,0,0,0,0,0,0,0,0,0,0,0,0,0,0,0,0,0,0,0,0,0,0,0,0,0,0,0,0,0,0,0,0,0,0,0,0],"id":12,"left_children":[1,3,5,7,9,11,13,15,17,19,21,23,25,27,29,31,33,35,37,39,41,-1,43,45,47,49,51,53,55,57,-1,-1,-1,59,-1,61,63,65,67,69,-1,-1,-1,-1,-1,71,-1,-1,-1,73,75,77,-1,-1,79,81,83,85,87,-1,-1,-1,-1,-1,-1,-1,-1,-1,-1,-1,-1,-1,-1,-1,-1,-1,-1,-1,-1,-1,-1,-1,-1,-1,-1,-1,-1,-1,-1],"loss_changes":[1.04623276E2,4.4575325E1,1.9136368E1,1.3845177E1,7.08074E0,9.806862E0,1.3213712E1,4.9899063E0,8.503434E0,2.3622093E0,2.3500524E0,3.757843E0,5.6444144E0,6.365758E0,2.8166685E0,1.964304E0,1.5042496E0,8.061271E0,4.1037316E0,1.1473293E0,7.426828E-3,0E0,8.569825E-2,2.9541779E0,3.121672E0,4.1181393E0,1.7090521E0,1.7795343E0,5.3185973E0,1.1893921E0,0E0,0E0,0E0,1.4302063E0,0E0,2.2852957E0,1.7506294E0,1.1030209E0,2.2879257E0,3.3443832E-1,0E0,0E0,0E0,0E0,0E0,2.2551575E0,0E0,0E0,0E0,1.0270815E0,3.3395615E0,1.9839883E-1,0E0,0E0,4.2173958E-1,2.2177367E0,2.1978936E0,5.9852786E-2,1.7507076E-1,0E0,0E0,0E0,0E0,0E0,0E0,0E0,0E0,0E0,0E0,0E0,0E0,0E0,0E0,0E0,0E0,0E0,0E0,0E0,0E0,0E0,0E0,0E0,0E0,0E0,0E0,0E0,0E0,0E0,0E0],"parents":[2147483647,0,0,1,1,2,2,3,3,4,4,5,5,6,6,7,7,8,8,9,9,10,10,11,11,12,12,13,13,14,14,15,15,16,16,17,17,18,18,19,19,20,20,22,22,23,23,24,24,25,25,26,26,27,27,28,28,29,29,33,33,35,35,36,36,37,37,38,38,39,39,45,45,49,49,50,50,51,51,54,54,55,55,56,56,57,57,58,58],"right_children":[2,4,6,8,10,12,14,16,18,20,22,24,26,28,30,32,34,36,38,40,42,-1,44,46,48,50,52,54,56,58,-1,-1,-1,60,-1,62,64,66,68,70,-1,-1,-1,-1,-1,72,-1,-1,-1,74,76,78,-1,-1,80,82,84,86,88,-1,-1,-1,-1,-1,-1,-1,-1,-1,-1,-1,-1,-1,-1,-1,-1,-1,-1,-1,-1,-1,-1,-1,-1,-1,-1,-1,-1,-1,-1],"split_conditions":[5.3501356E-1,4.0451387E-1,1.1548096E-1,3.9134675E-1,4.2312884E-1,7.1645975E-1,5.714742E-1,8.2668245E-2,7.5211145E-2,1.5112545E-1,7.284192E-2,2.0247622E0,8.893703E-2,6.615154E-1,9.1202855E-1,2.0464166E-1,1.2648307E0,2.2912616E-1,1.3580564E-1,8.84488E-1,5.0528973E-2,-1.654031E-1,5.602351E-1,7.903717E-1,1.5660012E-1,6.495469E-2,2.4320684E-1,1.08966656E-1,2.2572298E-1,2.0062485E-1,1.4304873E-1,-1.17856674E-1,1.8583725E-1,4.0069267E-2,6.944817E-2,4.7950944E-1,5.471632E-1,1.3765503E-1,1.0443564E-1,1.4670208E0,-4.4448595E-2,-2.694386E-2,-1.06349684E-1,1.358454E-1,2.0501727E-2,6.497154E-1,-1.8884617E-1,-1.608221E-1,1.6404621E-1,1.0895848E-1,3.460773E-1,4.1266134E-1,1.1699986E-1,-1.0179531E-1,3.8933173E-2,2.2449243E0,3.2244425E-2,5.472468E-1,9.323677E-3,1.01273075E-1,-1.6997755E-1,-1.4639942E-1,1.5149635E-1,2.0872627E-1,-9.747765E-2,-9.5303476E-2,1.7385335E-1,1.6064176E-1,-1.534921E-1,2.0346166E-1,2.204697E-2,1.8555743E-1,1.9821217E-2,9.034322E-2,-1.687978E-1,-7.255953E-2,1.6599664E-1,-2.0606503E-2,-1.8409713E-1,2.0237274E-1,1.5960917E-2,-1.7121726E-1,1.2952691E-1,1.917998E-1,-7.6154284E-2,6.944107E-2,-1.0055251E-2,-2.2338912E-2,-1.7580956E-1],"split_indices":[1317,352,605,522,1386,906,606,1283,677,985,200,170,549,195,1346,220,689,1018,1283,866,32,0,33,394,1222,1498,830,1334,804,576,0,0,0,10,0,237,730,104,408,908,0,0,0,0,0,694,0,0,0,15,714,1437,0,0,238,1328,1163,29,1432,0,0,0,0,0,0,0,0,0,0,0,0,0,0,0,0,0,0,0,0,0,0,0,0,0,0,0,0,0,0],"split_type":[0,0,0,0,0,0,0,0,0,0,0,0,0,0,0,0,0,0,0,0,0,0,0,0,0,0,0,0,0,0,0,0,0,0,0,0,0,0,0,0,0,0,0,0,0,0,0,0,0,0,0,0,0,0,0,0,0,0,0,0,0,0,0,0,0,0,0,0,0,0,0,0,0,0,0,0,0,0,0,0,0,0,0,0,0,0,0,0,0],"sum_hessian":[9.1703033E2,3.8640216E2,5.306282E2,3.160476E2,7.035455E1,4.3430594E2,9.632225E1,2.3429355E2,8.175407E1,5.9584793E1,1.0769756E1,3.781216E2,5.6184326E1,6.111882E1,3.520343E1,6.6549077E0,2.2763864E2,3.7417526E1,4.4336544E1,5.733337E1,2.2514224E0,7.3680534E0,3.4017026E0,3.6935205E2,8.769556E0,4.3856583E1,1.2327743E1,3.329583E1,2.7822992E1,3.2893654E1,2.3097765E0,2.0998852E0,4.5550222E0,2.2571826E2,1.9203702E0,1.3276034E1,2.4141489E1,5.8468614E0,3.848968E1,5.5891323E1,1.4420493E0,1.0591425E0,1.1922799E0,2.1937897E0,1.2079129E0,3.681712E2,1.1808486E0,4.934005E0,3.835551E0,6.369441E0,3.748714E1,1.0873136E1,1.4546065E0,1.3266797E0,3.1969149E1,1.5086793E1,1.2736198E1,2.2029808E0,3.0690676E1,1.1523939E0,2.2456587E2,1.1276017E1,2.0000176E0,2.2899597E1,1.2418921E0,1.0936064E0,4.753255E0,1.4198744E0,3.706981E1,5.469877E1,1.192554E0,3.6036884E2,7.8023863E0,1.0763046E0,5.2931366E0,5.7033253E0,3.1783817E1,1.0003853E0,9.87275E0,3.0652302E1,1.316847E0,1.3230882E1,1.8559114E0,9.63388E0,3.1023188E0,1.1621532E0,1.0408274E0,1.0045512E0,2.9686123E1],"tree_param":{"num_deleted":"0","num_feature":"1536","num_nodes":"89","size_leaf_vector":"1"}},{"base_weights":[4.6132676E-2,-4.5605376E-1,1.715779E-1,-7.274423E-2,-5.231715E-1,2.1789417E-1,-4.0538305E-1,4.1607752E-1,-3.721013E-1,1.4119066E-1,-5.329531E-1,2.7488884E-1,-1.4362322E-1,-4.7246176E-1,5.0448394E-1,-2.7715907E-1,6.380685E-1,-5.067747E-1,1.3669336E-1,-5.4334486E-1,1.20413944E-1,-4.510309E-2,3.3976108E-1,-3.4488487E-1,2.9097775E-1,-5.254853E-1,4.618683E-1,2.9641626E-2,1.904521E-1,-1.1017221E-1,-7.0021297E-3,2.1094748E-1,3.3293594E-2,5.4045804E-3,-1.628714E-1,-5.527523E-1,7.221184E-2,1.5147568E-1,-3.1380853E-1,3.6719877E-1,-1.2260931E-1,5.377424E-1,-4.1669822E-1,4.1826895E-1,-4.6903503E-1,-5.5409807E-1,1.1285082E-1,1.8207987E-1,2.7469663E-2,-1.676053E-1,4.6868615E-2,-1.138257E-1,8.464139E-2,-1.420961E-1,3.805446E-2,1.1441859E-1,-1.4877962E-1,-1.0923163E-1,1.144192E-1,3.526946E-2,1.9133605E-1,-1.3948438E-1,1.3809505E-1,-6.354996E-2,1.7208807E-1,-1.7078121E-1,-1.1669377E-2,3.740526E-2,-1.7132995E-1],"categories":[],"categories_nodes":[],"categories_segments":[],"categories_sizes":[],"default_left":[0,0,0,0,0,0,0,0,0,0,0,0,0,0,0,0,0,0,0,0,0,0,0,0,0,0,0,0,0,0,0,0,0,0,0,0,0,0,0,0,0,0,0,0,0,0,0,0,0,0,0,0,0,0,0,0,0,0,0,0,0,0,0,0,0,0,0,0,0],"id":13,"left_children":[1,3,5,7,9,11,13,15,17,-1,19,21,23,25,27,29,31,33,-1,35,-1,37,39,41,43,45,47,-1,-1,-1,-1,-1,-1,-1,-1,49,-1,51,53,55,57,59,61,63,65,67,-1,-1,-1,-1,-1,-1,-1,-1,-1,-1,-1,-1,-1,-1,-1,-1,-1,-1,-1,-1,-1,-1,-1],"loss_changes":[6.0971653E1,4.9393272E0,2.0775404E1,4.5433774E0,1.8497429E0,1.4818367E1,3.770712E0,2.0024238E0,2.3631704E0,0E0,1.8040657E0,1.2884121E1,8.701708E0,2.9387035E0,1.7299986E-1,7.315719E-2,2.4062467E-1,3.3068037E-1,0E0,1.3277626E0,0E0,5.6137266E0,6.585472E0,4.513234E0,3.2598033E0,1.5490589E0,1.3000286E-1,0E0,0E0,0E0,0E0,0E0,0E0,0E0,0E0,7.6168823E-1,0E0,4.375285E0,3.2189207E0,6.1556015E0,3.7452207E0,1.5739965E-1,2.885871E0,2.828529E0,1.9405198E-1,6.5712166E-1,0E0,0E0,0E0,0E0,0E0,0E0,0E0,0E0,0E0,0E0,0E0,0E0,0E0,0E0,0E0,0E0,0E0,0E0,0E0,0E0,0E0,0E0,0E0],"parents":[2147483647,0,0,1,1,2,2,3,3,4,4,5,5,6,6,7,7,8,8,10,10,11,11,12,12,13,13,14,14,15,15,16,16,17,17,19,19,21,21,22,22,23,23,24,24,25,25,26,26,35,35,37,37,38,38,39,39,40,40,41,41,42,42,43,43,44,44,45,45],"right_children":[2,4,6,8,10,12,14,16,18,-1,20,22,24,26,28,30,32,34,-1,36,-1,38,40,42,44,46,48,-1,-1,-1,-1,-1,-1,-1,-1,50,-1,52,54,56,58,60,62,64,66,68,-1,-1,-1,-1,-1,-1,-1,-1,-1,-1,-1,-1,-1,-1,-1,-1,-1,-1,-1,-1,-1,-1,-1],"split_conditions":[7.253923E-2,2.3819438E-1,4.9552363E-1,3.9696407E-1,3.3510234E-2,1.9969863E0,1.4275422E0,1.9996262E-1,8.7005705E-1,1.4119066E-1,1.6599905E0,1.0830529E-1,5.4711103E-1,1.753709E0,2.8744593E-1,4.3059263E-1,1.0180586E-1,5.8101997E-2,1.3669336E-1,6.53554E-1,1.20413944E-1,4.53965E-2,8.90553E-1,7.4367866E-2,1.6064365E-1,2.4722403E-1,8.94264E-1,2.9641626E-2,1.904521E-1,-1.1017221E-1,-7.0021297E-3,2.1094748E-1,3.3293594E-2,5.4045804E-3,-1.628714E-1,1.1364512E0,7.221184E-2,1.2340926E-1,9.1367507E-1,5.7632744E-1,2.6142943E-1,1.009353E0,1.2251556E0,1.1623788E0,1.9252573E-1,4.717585E-2,1.1285082E-1,1.8207987E-1,2.7469663E-2,-1.676053E-1,4.6868615E-2,-1.138257E-1,8.464139E-2,-1.420961E-1,3.805446E-2,1.1441859E-1,-1.4877962E-1,-1.0923163E-1,1.144192E-1,3.526946E-2,1.9133605E-1,-1.3948438E-1,1.3809505E-1,-6.354996E-2,1.7208807E-1,-1.7078121E-1,-1.1669377E-2,3.740526E-2,-1.7132995E-1],"split_indices":[1019,672,352,961,147,1328,366,899,379,0,1270,496,1535,1275,6,82,1365,151,0,6,0,787,538,671,34,32,3,0,0,0,0,0,0,0,0,1137,0,766,1062,1432,723,294,1147,1479,59,376,0,0,0,0,0,0,0,0,0,0,0,0,0,0,0,0,0,0,0,0,0,0,0],"split_type":[0,0,0,0,0,0,0,0,0,0,0,0,0,0,0,0,0,0,0,0,0,0,0,0,0,0,0,0,0,0,0,0,0,0,0,0,0,0,0,0,0,0,0,0,0,0,0,0,0,0,0,0,0,0,0,0,0,0,0,0,0,0,0,0,0,0,0,0,0],"sum_hessian":[9.6560974E2,1.9247041E2,7.7313934E2,2.8990345E1,1.6348007E2,7.162628E2,5.687655E1,1.0862693E1,1.8127651E1,1.1341729E0,1.623459E2,6.189262E2,9.7336586E1,5.3419037E1,3.457511E0,2.5744987E0,8.288194E0,1.5924515E1,2.203137E0,1.60974E2,1.3718994E0,1.0437683E2,5.145494E2,6.6668945E1,3.066764E1,5.0964375E1,2.4546633E0,1.2683321E0,2.189179E0,1.5703206E0,1.004178E0,7.07987E0,1.2083237E0,1.0580244E0,1.486649E1,1.5935695E2,1.617048E0,6.0530426E1,4.3846405E1,4.8592004E2,2.8629324E1,4.528089E0,6.2140858E1,2.665326E1,4.0143824E0,4.977044E1,1.1939342E0,1.304581E0,1.1500823E0,1.5824492E2,1.1120245E0,1.1579181E1,4.8951244E1,3.212016E1,1.1726244E1,4.786062E2,7.313851E0,1.954288E1,9.086444E0,1.2891021E0,3.2389867E0,5.9345757E1,2.7951016E0,5.199908E0,2.145335E1,2.9933689E0,1.0210135E0,1.0613928E0,4.870905E1],"tree_param":{"num_deleted":"0","num_feature":"1536","num_nodes":"69","size_leaf_vector":"1"}},{"base_weights":[-2.2973974E-1,-5.3477973E-2,-4.4530988E-1,-2.1421278E-1,1.5118253E-1,-4.661339E-1,3.7562305E-1,-2.4411286E-1,6.780267E-1,4.500279E-1,4.3134693E-2,-4.9211675E-1,4.0397984E-3,6.8215436E-1,-1.230009E-1,-2.7375442E-1,5.6240094E-1,-2.2829363E-2,2.4650893E-1,5.605037E-1,-1.9694021E-1,-1.2348578E-1,3.055179E-1,1.195044E-1,-5.1272845E-1,2.4431863E-1,-2.539926E-1,2.744691E-1,-9.5483966E-2,-9.512523E-3,-3.689866E-1,-1.1204175E-1,2.4181391E-1,-1.21570595E-1,6.1211425E-1,-1.632722E-1,1.9238651E-1,-1.902039E-1,6.213973E-1,-2.829918E-1,4.9440292E-1,-1.4409408E-1,5.529602E-1,1.276085E-1,-5.1942337E-1,-5.121933E-1,4.7044957E-1,1.4744385E-1,-5.1560294E-2,-1.3770403E-1,-4.934405E-2,-1.1667632E-1,1.9801387E-1,8.900716E-2,-8.35717E-2,2.4139145E-1,-2.72405E-2,-1.5232861E-1,1.0770387E-1,1.8173255E-2,2.2226569E-1,2.4612378E-1,-1.0067657E-1,-1.5987305E-1,-4.5485375E-3,-1.6393156E-1,-2.1391107E-2,2.497711E-1,-9.403023E-2],"categories":[],"categories_nodes":[],"categories_segments":[],"categories_sizes":[],"default_left":[0,0,0,0,0,0,0,0,0,0,0,0,0,0,0,0,0,0,0,0,0,0,0,0,0,0,0,0,0,0,0,0,0,0,0,0,0,0,0,0,0,0,0,0,0,0,0,0,0,0,0,0,0,0,0,0,0,0,0,0,0,0,0,0,0,0,0,0,0],"id":14,"left_children":[1,3,5,7,9,11,13,15,17,19,21,23,25,27,-1,29,31,-1,-1,33,35,37,39,41,43,-1,45,-1,-1,47,49,-1,-1,-1,51,-1,-1,53,55,57,59,-1,61,-1,63,65,67,-1,-1,-1,-1,-1,-1,-1,-1,-1,-1,-1,-1,-1,-1,-1,-1,-1,-1,-1,-1,-1,-1],"loss_changes":[3.0290844E1,1.4508823E1,6.3080597E0,6.752264E0,6.2501984E0,4.281746E0,2.5503504E0,5.882571E0,9.585748E-1,3.7880316E0,6.320678E0,4.2465057E0,4.2503624E0,1.9578788E0,0E0,5.8297157E0,2.312673E0,0E0,0E0,2.4515438E0,2.7492018E0,4.521822E0,6.3765645E0,3.2904472E0,2.2392044E0,0E0,3.1271179E0,0E0,0E0,5.1629696E0,3.0611725E0,0E0,0E0,0E0,2.289444E0,0E0,0E0,3.614691E0,1.0542598E0,2.2411976E0,4.535699E0,0E0,1.990777E0,0E0,2.1649857E0,1.4001489E-1,1.5597833E0,0E0,0E0,0E0,0E0,0E0,0E0,0E0,0E0,0E0,0E0,0E0,0E0,0E0,0E0,0E0,0E0,0E0,0E0,0E0,0E0,0E0,0E0],"parents":[2147483647,0,0,1,1,2,2,3,3,4,4,5,5,6,6,7,7,8,8,9,9,10,10,11,11,12,12,13,13,15,15,16,16,19,19,20,20,21,21,22,22,23,23,24,24,26,26,29,29,30,30,34,34,37,37,38,38,39,39,40,40,42,42,44,44,45,45,46,46],"right_children":[2,4,6,8,10,12,14,16,18,20,22,24,26,28,-1,30,32,-1,-1,34,36,38,40,42,44,-1,46,-1,-1,48,50,-1,-1,-1,52,-1,-1,54,56,58,60,-1,62,-1,64,66,68,-1,-1,-1,-1,-1,-1,-1,-1,-1,-1,-1,-1,-1,-1,-1,-1,-1,-1,-1,-1,-1,-1],"split_conditions":[5.2450657E-1,4.7250712E-1,1.8766261E0,4.8987138E-1,2.5973523E-1,6.262328E-1,3.996633E-2,3.424533E-1,3.5532874E-1,2.1082863E-1,1.7561115E-1,6.4165525E-2,6.542495E-3,2.77561E-1,-1.230009E-1,4.8670948E-1,1.7494492E-2,-2.2829363E-2,2.4650893E-1,2.4749774E-2,4.4996777E-1,1.4410868E-1,1.5618332E-1,6.021309E-1,9.7267395E-3,2.4431863E-1,5.882619E-1,2.744691E-1,-9.5483966E-2,1.14837274E-1,2.2275457E-1,-1.1204175E-1,2.4181391E-1,-1.21570595E-1,2.335604E-2,-1.632722E-1,1.9238651E-1,1.08218804E-1,1.7512704E-1,8.300988E-2,1.9425693E-1,-1.4409408E-1,7.0219266E-1,1.276085E-1,1.2825856E0,8.887192E-1,2.6345247E-1,1.4744385E-1,-5.1560294E-2,-1.3770403E-1,-4.934405E-2,-1.1667632E-1,1.9801387E-1,8.900716E-2,-8.35717E-2,2.4139145E-1,-2.72405E-2,-1.5232861E-1,1.0770387E-1,1.8173255E-2,2.2226569E-1,2.4612378E-1,-1.0067657E-1,-1.5987305E-1,-4.5485375E-3,-1.6393156E-1,-2.1391107E-2,2.497711E-1,-9.403023E-2],"split_indices":[1317,8,960,1432,837,1386,145,1486,111,1208,841,1429,799,709,0,432,1229,0,0,106,252,67,1182,524,184,0,1091,0,0,858,148,0,0,0,894,0,0,1447,1466,1295,892,0,893,0,1230,71,284,0,0,0,0,0,0,0,0,0,0,0,0,0,0,0,0,0,0,0,0,0,0],"split_type":[0,0,0,0,0,0,0,0,0,0,0,0,0,0,0,0,0,0,0,0,0,0,0,0,0,0,0,0,0,0,0,0,0,0,0,0,0,0,0,0,0,0,0,0,0,0,0,0,0,0,0,0,0,0,0,0,0,0,0,0,0,0,0,0,0,0,0,0,0],"sum_hessian":[7.9682184E2,4.3906595E2,3.5775592E2,2.458978E2,1.9316814E2,3.49327E2,8.42893E0,2.3862749E2,7.2703094E0,5.045407E1,1.4271407E2,3.309891E2,1.8337877E1,6.1579576E0,2.2709725E0,2.3080534E2,7.822146E0,1.2386969E0,6.0316124E0,4.3209324E1,7.2447457E0,8.760921E1,5.510486E1,1.0634291E1,3.2035483E2,3.9081342E0,1.4429744E1,5.0651035E0,1.0928538E0,6.1436527E1,1.6936882E2,1.5057012E0,6.3164444E0,1.8444309E0,4.136489E1,5.3703794E0,1.8743659E0,8.109068E1,6.518526E0,1.3267873E1,4.1836987E1,4.4157104E0,6.2185807E0,1.8269718E0,3.1852783E2,1.0854161E1,3.575583E0,1.4540518E1,4.689601E1,1.16735565E2,5.263325E1,1.5650759E0,3.9799816E1,1.209453E1,6.8996155E1,5.081356E0,1.43717E0,9.982152E0,3.28572E0,1.5609331E1,2.6227655E1,4.8387914E0,1.3797892E0,3.101752E2,8.352654E0,9.849706E0,1.0044552E0,2.403267E0,1.1723161E0],"tree_param":{"num_deleted":"0","num_feature":"1536","num_nodes":"69","size_leaf_vector":"1"}},{"base_weights":[1.2595175E-1,-2.5872374E-1,3.7688723E-1,7.609651E-2,-4.6764174E-1,4.866345E-1,-1.8829297E-2,4.3552107E-1,-1.7649798E-1,-4.921586E-1,4.5647794E-1,-9.121925E-2,5.227551E-1,3.227717E-1,-2.9564303E-1,5.284103E-1,-2.127719E-1,2.9109E-1,-4.2564577E-1,-5.301237E-1,-5.026652E-3,1.670146E-1,7.829845E-3,2.4609055E-1,-4.3964854E-1,2.4365737E-1,5.531905E-1,4.5114374E-1,-4.7143468E-1,2.77439E-1,-4.0626258E-1,-3.3257578E-2,5.909107E-1,-1.5576388E-1,9.667321E-2,-1.3713038E-1,4.2925137E-1,1.3194078E-1,-5.042117E-1,-5.473459E-1,2.929304E-1,4.5759976E-1,-1.4956579E-1,4.6028328E-1,-2.771328E-1,-1.7342955E-1,1.3385703E-1,4.3099517E-1,-4.439625E-1,5.7935107E-1,2.625772E-1,5.3347313E-1,-3.5038388E-1,3.9978802E-2,-1.7893845E-1,-1.2851876E-1,5.4441637E-1,1.61836E-1,-5.239958E-1,1.4132419E-1,-1.2977684E-1,1.8667242E-1,-2.4066068E-2,-5.4218054E-2,1.642506E-1,-1.6549297E-1,3.554924E-2,-1.6674599E-1,9.069974E-2,-9.5337406E-2,2.0019871E-1,-9.878182E-2,1.9835784E-1,-4.3853976E-2,1.7017317E-1,-1.1966301E-1,1.5862724E-2,-9.266598E-2,1.6265756E-1,-1.6239734E-1,3.184025E-2,1.8483069E-2,1.7732833E-1,1.4475371E-1,-1.194663E-1,-9.918063E-2,1.7159572E-1,-2.363507E-2,-1.22112855E-1,1.8264073E-1,1.7467514E-2,1.544631E-1,-1.1686156E-1,6.429002E-2,-1.6569728E-1],"categories":[],"categories_nodes":[],"categories_segments":[],"categories_sizes":[],"default_left":[0,0,0,0,0,0,0,0,0,0,0,0,0,0,0,0,0,0,0,0,0,0,0,0,0,0,0,0,0,0,0,0,0,0,0,0,0,0,0,0,0,0,0,0,0,0,0,0,0,0,0,0,0,0,0,0,0,0,0,0,0,0,0,0,0,0,0,0,0,0,0,0,0,0,0,0,0,0,0,0,0,0,0,0,0,0,0,0,0,0,0,0,0,0,0],"id":15,"left_children":[1,3,5,7,9,11,13,15,17,19,21,23,25,27,29,31,33,35,37,39,41,-1,-1,43,45,47,49,51,53,55,57,59,61,-1,-1,-1,63,-1,65,67,69,71,-1,73,75,-1,-1,77,79,81,83,85,87,-1,-1,-1,89,91,93,-1,-1,-1,-1,-1,-1,-1,-1,-1,-1,-1,-1,-1,-1,-1,-1,-1,-1,-1,-1,-1,-1,-1,-1,-1,-1,-1,-1,-1,-1,-1,-1,-1,-1,-1,-1],"loss_changes":[7.545771E1,2.163681E1,2.0546333E1,1.0927252E1,4.536129E0,7.775795E0,9.895429E0,3.1001568E0,8.383476E0,3.4346428E0,2.2001815E-1,2.7683125E0,2.8265533E0,4.9910984E0,3.774973E0,1.5531254E0,1.3036302E0,2.8052185E0,3.3943434E0,2.6042404E0,3.526758E0,0E0,0E0,1.4882693E0,1.6674023E0,4.8372617E0,2.2317123E0,2.8831043E0,6.095036E-1,2.10654E0,3.3506613E0,1.2754003E0,8.775873E-1,0E0,0E0,0E0,1.6728845E0,0E0,1.3425627E0,1.3865242E0,1.1690147E0,1.4958984E0,0E0,6.6612387E-1,1.8785807E-1,0E0,0E0,2.5411391E0,4.974196E-1,1.7075119E0,4.2212973E0,1.4353008E0,3.578621E-2,0E0,0E0,0E0,2.0412827E-1,1.9809427E0,9.692259E-1,0E0,0E0,0E0,0E0,0E0,0E0,0E0,0E0,0E0,0E0,0E0,0E0,0E0,0E0,0E0,0E0,0E0,0E0,0E0,0E0,0E0,0E0,0E0,0E0,0E0,0E0,0E0,0E0,0E0,0E0,0E0,0E0,0E0,0E0,0E0,0E0],"parents":[2147483647,0,0,1,1,2,2,3,3,4,4,5,5,6,6,7,7,8,8,9,9,10,10,11,11,12,12,13,13,14,14,15,15,16,16,17,17,18,18,19,19,20,20,23,23,24,24,25,25,26,26,27,27,28,28,29,29,30,30,31,31,32,32,36,36,38,38,39,39,40,40,41,41,43,43,44,44,47,47,48,48,49,49,50,50,51,51,52,52,56,56,57,57,58,58],"right_children":[2,4,6,8,10,12,14,16,18,20,22,24,26,28,30,32,34,36,38,40,42,-1,-1,44,46,48,50,52,54,56,58,60,62,-1,-1,-1,64,-1,66,68,70,72,-1,74,76,-1,-1,78,80,82,84,86,88,-1,-1,-1,90,92,94,-1,-1,-1,-1,-1,-1,-1,-1,-1,-1,-1,-1,-1,-1,-1,-1,-1,-1,-1,-1,-1,-1,-1,-1,-1,-1,-1,-1,-1,-1,-1,-1,-1,-1,-1,-1],"split_conditions":[4.9770376E-1,5.6423306E-1,1.1548096E-1,1.6052473E-1,5.172722E-1,3.945295E-2,2.8909338E-1,5.7213235E-1,3.7733155E-1,3.8907436E-1,3.0882282E-2,1.5806625E0,1.1114819E-1,3.6670815E-2,1.1118981E-1,4.388568E-2,5.252261E-1,1.866579E-1,9.2168726E-2,1.1995173E0,3.3586255E-1,1.670146E-1,7.829845E-3,1.59961E-1,1.2219186E0,6.479558E-1,3.8799447E-1,1.0870717E0,5.710807E-1,8.556574E-3,5.034721E-2,1.6255242E-1,5.891466E-1,-1.5576388E-1,9.667321E-2,-1.3713038E-1,1.500298E-1,1.3194078E-1,5.4264253E-1,1.2135663E0,1.2517856E0,1.3932669E-1,-1.4956579E-1,4.647556E-1,2.979779E-1,-1.7342955E-1,1.3385703E-1,1.038297E-1,2.655397E-2,1.2454372E-1,2.87598E-1,7.94326E-2,8.619834E-2,3.9978802E-2,-1.7893845E-1,-1.2851876E-1,8.4397785E-2,2.2280157E-1,1.442435E-1,1.4132419E-1,-1.2977684E-1,1.8667242E-1,-2.4066068E-2,-5.4218054E-2,1.642506E-1,-1.6549297E-1,3.554924E-2,-1.6674599E-1,9.069974E-2,-9.5337406E-2,2.0019871E-1,-9.878182E-2,1.9835784E-1,-4.3853976E-2,1.7017317E-1,-1.1966301E-1,1.5862724E-2,-9.266598E-2,1.6265756E-1,-1.6239734E-1,3.184025E-2,1.8483069E-2,1.7732833E-1,1.4475371E-1,-1.194663E-1,-9.918063E-2,1.7159572E-1,-2.363507E-2,-1.22112855E-1,1.8264073E-1,1.7467514E-2,1.544631E-1,-1.1686156E-1,6.429002E-2,-1.6569728E-1],"split_indices":[757,82,605,190,352,555,1493,249,653,385,319,170,1222,930,1518,352,1408,237,1019,770,1278,0,0,178,231,1108,658,1156,813,272,1432,906,531,0,0,0,532,0,310,68,114,18,0,731,263,0,0,18,603,511,390,1399,177,0,0,0,1349,723,1413,0,0,0,0,0,0,0,0,0,0,0,0,0,0,0,0,0,0,0,0,0,0,0,0,0,0,0,0,0,0,0,0,0,0,0,0],"split_type":[0,0,0,0,0,0,0,0,0,0,0,0,0,0,0,0,0,0,0,0,0,0,0,0,0,0,0,0,0,0,0,0,0,0,0,0,0,0,0,0,0,0,0,0,0,0,0,0,0,0,0,0,0,0,0,0,0,0,0,0,0,0,0,0,0,0,0,0,0,0,0,0,0,0,0,0,0,0,0,0,0,0,0,0,0,0,0,0,0,0,0,0,0,0,0],"sum_hessian":[7.7970233E2,3.0780963E2,4.718927E2,1.1851253E2,1.8929712E2,3.6925458E2,1.02638115E2,4.8613983E1,6.989854E1,1.8486021E2,4.436906E0,2.1633799E1,3.476208E2,4.586838E1,5.6769733E1,4.2683144E1,5.9308405E0,2.4239231E1,4.565931E1,1.7141273E2,1.3447475E1,3.3606458E0,1.0762601E0,1.1141538E1,1.0492261E1,3.506596E1,3.125548E2,3.9857883E1,6.010498E0,8.941069E0,4.7828663E1,4.320878E0,3.8362267E1,3.7897332E0,2.1411073E0,3.418487E0,2.0820744E1,3.4173534E0,4.2241955E1,1.6822762E2,3.1851263E0,6.9785995E0,6.4688764E0,7.990676E0,3.1508622E0,9.374497E0,1.117764E0,2.7851263E1,7.2146974E0,2.8583118E2,2.6723625E1,3.6448483E1,3.4094E0,1.0185186E0,4.991979E0,2.2878456E0,6.653223E0,8.146195E0,3.968247E1,1.8299992E0,2.490879E0,3.6720856E1,1.6414084E0,3.295103E0,1.752564E1,3.9358185E1,2.8837698E0,1.6690883E2,1.3187829E0,1.2679813E0,1.9171451E0,1.3075817E0,5.6710176E0,1.1430349E0,6.847641E0,2.149282E0,1.0015802E0,3.4065948E0,2.4444668E1,6.1433325E0,1.0713651E0,6.4779587E0,2.7935324E2,2.0252678E1,6.470947E0,1.2316079E0,3.5216873E1,1.0010858E0,2.4083142E0,5.652481E0,1.0007422E0,5.006662E0,3.139534E0,1.2237668E0,3.8458702E1],"tree_param":{"num_deleted":"0","num_feature":"1536","num_nodes":"95","size_leaf_vector":"1"}},{"base_weights":[4.0288627E-2,-4.262251E-1,1.413408E-1,2.4261548E-4,-4.881176E-1,1.7772458E-1,-3.696698E-1,3.8191736E-1,-3.7209922E-1,5.5832714E-2,-5.110134E-1,2.37851E-1,-7.0403926E-2,-4.566297E-1,3.4383535E-1,-1.1424137E-1,5.7586753E-1,-1.4945383E-1,1.2748012E-1,-1.3143931E-1,2.884094E-1,3.1493813E-2,-5.3283536E-1,-1.1288035E-1,2.739773E-1,-2.5172925E-1,2.0101097E-1,-5.174697E-1,4.063816E-1,-9.346473E-2,1.7943548E-1,1.9470377E-1,2.7475206E-2,-1.1539138E-1,1.20627E-1,-5.404754E-1,6.1611835E-2,-3.580147E-1,2.548514E-1,1.4909494E-1,3.6289182E-1,3.818411E-1,-3.3714116E-1,2.8986898E-1,-1.6800535E-1,-5.486586E-1,7.059567E-2,2.1586291E-2,1.6490546E-1,1.4221504E-2,-1.6369958E-1,-1.3587958E-1,1.1609735E-1,-8.094539E-2,1.6409862E-1,-3.9908003E-2,7.2485715E-2,1.24346174E-1,2.831404E-3,1.7313261E-1,-1.1619835E-1,-1.2851405E-1,4.9133718E-2,-5.657488E-3,1.4518447E-1,-2.1129644E-2,-1.67799E-1],"categories":[],"categories_nodes":[],"categories_segments":[],"categories_sizes":[],"default_left":[0,0,0,0,0,0,0,0,0,0,0,0,0,0,0,0,0,0,0,0,0,0,0,0,0,0,0,0,0,0,0,0,0,0,0,0,0,0,0,0,0,0,0,0,0,0,0,0,0,0,0,0,0,0,0,0,0,0,0,0,0,0,0,0,0,0,0],"id":16,"left_children":[1,3,5,7,9,11,13,15,17,19,21,23,25,27,29,-1,31,-1,-1,-1,-1,33,35,37,39,41,43,45,47,-1,-1,-1,-1,-1,-1,49,-1,51,53,55,57,59,61,63,-1,65,-1,-1,-1,-1,-1,-1,-1,-1,-1,-1,-1,-1,-1,-1,-1,-1,-1,-1,-1,-1,-1],"loss_changes":[4.092815E1,4.080738E0,1.3327895E1,3.0685756E0,1.7099113E0,9.961399E0,3.1188703E0,1.7965631E0,1.3100675E0,3.2635975E0,1.551651E0,6.832306E0,6.487325E0,2.466979E0,1.1456604E0,0E0,2.557795E-1,0E0,0E0,0E0,0E0,1.0734239E0,8.142624E-1,4.673712E0,5.3528976E0,4.395736E0,3.7421856E0,1.0820923E0,1.22938514E-1,0E0,0E0,0E0,0E0,0E0,0E0,4.0324783E-1,0E0,2.3616076E0,3.3537614E0,5.3626714E0,5.170494E0,1.7008533E0,3.270101E0,2.8888931E0,0E0,1.610384E-1,0E0,0E0,0E0,0E0,0E0,0E0,0E0,0E0,0E0,0E0,0E0,0E0,0E0,0E0,0E0,0E0,0E0,0E0,0E0,0E0,0E0],"parents":[2147483647,0,0,1,1,2,2,3,3,4,4,5,5,6,6,7,7,8,8,9,9,10,10,11,11,12,12,13,13,14,14,16,16,21,21,22,22,23,23,24,24,25,25,26,26,27,27,28,28,35,35,37,37,38,38,39,39,40,40,41,41,42,42,43,43,45,45],"right_children":[2,4,6,8,10,12,14,16,18,20,22,24,26,28,30,-1,32,-1,-1,-1,-1,34,36,38,40,42,44,46,48,-1,-1,-1,-1,-1,-1,50,-1,52,54,56,58,60,62,64,-1,66,-1,-1,-1,-1,-1,-1,-1,-1,-1,-1,-1,-1,-1,-1,-1,-1,-1,-1,-1,-1,-1],"split_conditions":[7.253923E-2,6.005906E-1,4.9552363E-1,2.3819438E-1,9.104125E-2,1.7124708E-1,1.6343184E0,4.8953992E-1,1.4845933E0,6.3588566E-1,4.2048756E-2,1.04173824E-1,8.630517E-1,1.6733242E0,4.8061416E-1,-1.1424137E-1,3.564252E-1,-1.4945383E-1,1.2748012E-1,-1.3143931E-1,2.884094E-1,1.7303558E-1,1.4120402E0,1.0349891E-1,6.296766E-2,6.3496016E-2,4.7301495E-1,8.025493E-1,1.1059885E0,-9.346473E-2,1.7943548E-1,1.9470377E-1,2.7475206E-2,-1.1539138E-1,1.20627E-1,2.4288572E-1,6.1611835E-2,2.871352E-1,1.1561592E0,2.2028506E-2,3.555924E-2,1.995288E-1,6.602855E-1,1.5649267E-2,-1.6800535E-1,7.0156264E-1,7.059567E-2,2.1586291E-2,1.6490546E-1,1.4221504E-2,-1.6369958E-1,-1.3587958E-1,1.1609735E-1,-8.094539E-2,1.6409862E-1,-3.9908003E-2,7.2485715E-2,1.24346174E-1,2.831404E-3,1.7313261E-1,-1.1619835E-1,-1.2851405E-1,4.9133718E-2,-5.657488E-3,1.4518447E-1,-2.1129644E-2,-1.67799E-1],"split_indices":[1019,364,352,672,1360,514,1026,1176,1270,1044,267,877,40,1275,120,0,177,0,0,0,0,817,1256,216,134,104,1446,1184,0,0,0,0,0,0,0,494,0,65,1275,954,796,1327,602,811,0,1038,0,0,0,0,0,0,0,0,0,0,0,0,0,0,0,0,0,0,0,0,0],"split_type":[0,0,0,0,0,0,0,0,0,0,0,0,0,0,0,0,0,0,0,0,0,0,0,0,0,0,0,0,0,0,0,0,0,0,0,0,0,0,0,0,0,0,0,0,0,0,0,0,0,0,0,0,0,0,0,0,0,0,0,0,0,0,0,0,0,0,0],"sum_hessian":[8.659066E2,1.5359729E2,7.123093E2,1.9592447E1,1.3400484E2,6.65573E2,4.6736336E1,9.662271E0,9.930177E0,5.3545594E0,1.2865027E2,5.357835E2,1.2978946E2,4.197996E1,4.7563744E0,1.763556E0,7.8987145E0,8.897643E0,1.0325335E0,3.7986007E0,1.5559585E0,4.957617E0,1.2369266E2,4.9835182E1,4.8594833E2,7.785144E1,5.1938023E1,3.9589405E1,2.3905568E0,1.266615E0,3.4897592E0,6.5667396E0,1.3319747E0,2.3174872E0,2.6401293E0,1.2269073E2,1.0019312E0,2.9917946E1,1.9917236E1,2.0321097E2,2.8273737E2,8.836116E0,6.901533E1,4.706214E1,4.8758836E0,3.8274803E1,1.3146033E0,1.1676707E0,1.2228861E0,1.0024581E0,1.2168827E2,2.6884748E1,3.0331974E0,7.150994E0,1.2766243E1,5.007774E1,1.5313322E2,2.4657141E2,3.6165943E1,7.2462277E0,1.5898886E0,5.8504055E1,1.0511272E1,1.8514091E1,2.8548048E1,1.0013306E0,3.727347E1],"tree_param":{"num_deleted":"0","num_feature":"1536","num_nodes":"67","size_leaf_vector":"1"}},{"base_weights":[-1.8984963E-1,-3.053481E-2,-4.0953463E-1,-1.7420857E-1,1.4385512E-1,-4.3149608E-1,3.5251203E-1,-3.2759157E-1,-1.9001413E-2,3.552027E-1,2.5784923E-2,-4.5535415E-1,1.08305946E-1,6.118574E-1,-1.13065995E-1,-4.23101E-1,1.7907113E-1,-1.8963552E-1,2.3962912E-1,-2.1342473E-1,4.444954E-1,3.8837025E-1,-8.926859E-2,-4.8050788E-1,3.182779E-2,2.3804986E-1,-1.5079804E-1,-4.8977975E-2,2.4471174E-1,-1.544971E-1,-5.2084124E-1,6.4972097E-1,-4.4406188E-1,-2.7036387E-1,6.556095E-1,-2.480723E-1,4.698587E-1,-4.178938E-1,1.3958544E-1,5.296769E-1,-2.0426512E-1,6.4516443E-1,-1.5494543E-1,-2.6876992E-1,1.3293505E-1,7.075141E-2,-4.9453545E-1,4.6838057E-1,-4.1309226E-1,-3.6417288E-1,1.4589486E-1,1.2416233E-1,-8.837519E-2,-1.6363691E-1,1.0693907E-1,2.7374104E-1,-6.3016035E-2,-1.555005E-1,1.7710643E-2,9.945067E-2,-1.1151608E-1,-9.930117E-2,2.9820532E-1,2.3195054E-1,-1.2103819E-1,1.7828543E-1,-1.367932E-1,5.468816E-2,-1.5921453E-1,1.8121666E-1,-3.0292345E-2,1.7906906E-1,-1.4899786E-1,-3.993233E-3,2.4308227E-1,-1.32876E-1,1.6162354E-1,2.1070114E-1,-1.0007068E-1,-5.080662E-2,1.23382516E-1,-9.6613E-2,1.9338597E-1,1.0420705E-1,-1.5098721E-1,